svm_type c_svc
kernel_type rbf
gamma 1.609243494633173E-5
nr_class 2
total_sv 12494
rho -0.8826718732466772
label 1 0
probA -182.91029550804663
probB 181.7383300548208
nr_sv 6364 6130
SV
1.0 15:1.0 16:1.0 17:1.0 18:1.0 19:1.0 20:1.0 21:1.0 22:1.0 23:1.0 24:1.0 25:1.0 26:1.0 
1.0 23:2.0 24:2.0 25:2.0 26:1.0 35:1.0 40:1.0 42:1.0 47:1.0 48:1.0 49:1.0 50:1.0 51:1.0 52:1.0 53:1.0 54:2.0 55:1.0 56:1.0 57:1.0 58:1.0 59:1.0 60:1.0 61:1.0 62:1.0 63:1.0 64:1.0 65:1.0 66:1.0 67:1.0 68:1.0 69:1.0 70:1.0 71:1.0 72:1.0 73:1.0 74:1.0 75:1.0 
1.0 6:1.0 23:1.0 24:1.0 25:1.0 35:1.0 40:1.0 83:1.0 84:1.0 85:1.0 86:1.0 87:1.0 88:1.0 105:1.0 106:1.0 107:1.0 108:1.0 109:1.0 110:1.0 111:1.0 112:1.0 
1.0 6:1.0 16:2.0 17:2.0 18:2.0 19:2.0 23:2.0 24:2.0 25:2.0 35:2.0 104:2.0 113:1.0 114:1.0 115:1.0 116:1.0 117:1.0 118:1.0 119:1.0 120:1.0 121:1.0 122:1.0 123:1.0 124:1.0 125:1.0 126:1.0 127:1.0 
1.0 23:1.0 24:1.0 25:1.0 35:1.0 54:1.0 55:1.0 56:1.0 57:1.0 58:1.0 59:1.0 127:1.0 128:1.0 129:1.0 130:1.0 131:1.0 132:1.0 133:1.0 134:1.0 
1.0 16:1.0 17:1.0 18:1.0 19:1.0 23:1.0 24:1.0 25:1.0 26:1.0 104:1.0 135:1.0 136:1.0 137:1.0 138:1.0 139:1.0 140:1.0 141:1.0 142:1.0 143:1.0 144:1.0 145:1.0 146:1.0 147:1.0 148:1.0 149:1.0 150:1.0 151:1.0 152:1.0 153:1.0 154:1.0 155:1.0 156:1.0 157:1.0 158:1.0 159:1.0 160:1.0 161:1.0 162:1.0 
1.0 23:2.0 24:2.0 25:2.0 35:2.0 127:1.0 163:1.0 164:1.0 165:1.0 166:1.0 167:1.0 168:1.0 169:1.0 170:1.0 171:1.0 172:1.0 173:1.0 174:1.0 175:1.0 176:1.0 177:1.0 178:1.0 179:1.0 180:1.0 
1.0 89:1.0 211:1.0 212:1.0 213:1.0 214:1.0 215:1.0 216:1.0 217:1.0 218:1.0 219:1.0 220:1.0 221:1.0 222:1.0 
1.0 26:1.0 40:1.0 251:2.0 267:1.0 268:1.0 269:1.0 
1.0 26:1.0 308:1.0 309:1.0 310:1.0 311:1.0 312:1.0 313:1.0 314:1.0 
1.0 26:1.0 45:1.0 46:1.0 204:1.0 205:1.0 206:1.0 207:1.0 208:1.0 315:1.0 316:1.0 317:1.0 318:1.0 319:1.0 320:1.0 321:1.0 322:1.0 323:1.0 324:1.0 325:1.0 
1.0 54:1.0 55:1.0 56:1.0 57:1.0 58:1.0 59:1.0 127:1.0 128:1.0 129:1.0 130:1.0 131:1.0 132:1.0 133:1.0 134:1.0 251:1.0 
1.0 26:1.0 340:1.0 341:1.0 342:1.0 343:1.0 344:1.0 345:1.0 346:1.0 347:1.0 348:1.0 
1.0 6:1.0 127:1.0 241:1.0 242:1.0 243:1.0 244:1.0 245:1.0 246:1.0 247:1.0 349:1.0 350:1.0 351:1.0 352:1.0 353:1.0 354:1.0 355:1.0 356:1.0 357:1.0 358:1.0 359:1.0 360:1.0 361:1.0 
1.0 127:1.0 163:1.0 164:1.0 372:1.0 373:1.0 374:1.0 375:1.0 376:1.0 377:1.0 378:1.0 
1.0 6:1.0 386:1.0 387:1.0 388:1.0 389:1.0 390:1.0 391:1.0 
1.0 6:1.0 40:1.0 123:1.0 124:1.0 125:1.0 126:1.0 386:1.0 387:1.0 388:1.0 389:1.0 390:1.0 391:1.0 393:1.0 394:1.0 400:1.0 401:1.0 402:1.0 403:1.0 
1.0 163:1.0 164:1.0 425:1.0 
1.0 163:1.0 164:1.0 426:1.0 
1.0 54:1.0 55:1.0 56:1.0 57:1.0 58:1.0 59:1.0 127:1.0 128:1.0 129:1.0 130:1.0 131:1.0 132:1.0 133:1.0 134:1.0 393:1.0 394:1.0 429:1.0 
0.4710204902941847 164:1.0 430:1.0 431:1.0 432:1.0 433:1.0 434:1.0 435:1.0 436:1.0 437:1.0 438:1.0 439:1.0 440:1.0 441:1.0 442:1.0 443:1.0 444:1.0 445:1.0 446:1.0 447:1.0 448:1.0 449:1.0 450:1.0 451:1.0 452:1.0 453:1.0 454:1.0 455:1.0 456:1.0 457:1.0 458:1.0 459:1.0 460:1.0 461:1.0 462:1.0 463:1.0 464:1.0 465:1.0 
0.8632132050012822 6:1.0 127:1.0 393:1.0 394:1.0 466:1.0 467:1.0 468:1.0 469:1.0 470:1.0 471:1.0 472:1.0 473:1.0 474:1.0 475:1.0 476:1.0 477:1.0 478:1.0 479:1.0 480:1.0 481:1.0 482:1.0 483:1.0 484:1.0 485:1.0 486:1.0 487:1.0 
1.0 26:1.0 393:1.0 394:1.0 429:1.0 480:1.0 481:1.0 482:1.0 483:1.0 488:1.0 489:1.0 490:2.0 491:1.0 492:1.0 493:1.0 494:1.0 495:1.0 496:1.0 
1.0 40:1.0 89:1.0 142:1.0 143:1.0 144:1.0 393:1.0 394:1.0 497:1.0 498:1.0 499:1.0 500:1.0 501:1.0 502:1.0 503:1.0 504:1.0 505:1.0 506:1.0 507:1.0 508:1.0 509:1.0 510:1.0 
1.0 26:1.0 53:1.0 54:4.0 55:4.0 56:4.0 57:4.0 58:4.0 59:4.0 133:2.0 195:1.0 196:1.0 197:1.0 198:1.0 199:1.0 200:1.0 201:1.0 202:1.0 210:1.0 515:1.0 516:1.0 517:1.0 518:1.0 519:1.0 520:1.0 521:1.0 522:1.0 523:1.0 524:1.0 525:1.0 526:1.0 527:1.0 
1.0 163:1.0 164:1.0 528:1.0 
1.0 54:1.0 55:1.0 56:1.0 57:1.0 58:1.0 59:1.0 127:1.0 128:1.0 129:1.0 130:1.0 131:1.0 132:1.0 133:1.0 134:1.0 529:1.0 530:1.0 531:1.0 532:1.0 
1.0 127:1.0 163:1.0 164:1.0 165:1.0 166:1.0 167:1.0 168:1.0 169:1.0 170:1.0 171:1.0 172:1.0 173:1.0 174:1.0 175:1.0 176:1.0 177:1.0 178:1.0 179:1.0 180:1.0 529:2.0 530:2.0 531:2.0 532:2.0 
1.0 26:1.0 553:1.0 554:1.0 
1.0 6:1.0 40:1.0 215:1.0 216:1.0 217:1.0 218:1.0 554:1.0 563:1.0 564:1.0 565:1.0 566:1.0 567:1.0 568:1.0 569:1.0 570:1.0 571:1.0 
1.0 6:1.0 127:1.0 554:1.0 599:1.0 600:1.0 601:1.0 602:1.0 603:1.0 604:1.0 605:1.0 606:1.0 607:1.0 608:1.0 609:1.0 610:1.0 611:1.0 612:1.0 
1.0 54:1.0 55:1.0 56:1.0 57:1.0 58:1.0 59:1.0 127:1.0 128:1.0 129:1.0 130:1.0 131:1.0 132:1.0 133:1.0 134:1.0 554:1.0 
1.0 26:1.0 127:1.0 628:1.0 654:2.0 655:1.0 656:1.0 657:1.0 658:1.0 659:1.0 660:1.0 661:1.0 662:1.0 663:1.0 664:1.0 665:1.0 
1.0 54:1.0 55:1.0 56:1.0 57:1.0 58:1.0 59:1.0 127:1.0 128:1.0 129:1.0 130:1.0 131:1.0 132:1.0 133:1.0 134:1.0 628:1.0 
1.0 6:1.0 127:1.0 535:1.0 536:1.0 537:1.0 538:1.0 539:1.0 540:1.0 541:1.0 542:1.0 543:1.0 544:1.0 
1.0 26:1.0 476:1.0 477:1.0 488:1.0 490:2.0 628:1.0 648:1.0 649:1.0 650:1.0 675:1.0 676:1.0 677:1.0 678:1.0 679:1.0 
1.0 26:1.0 166:1.0 167:1.0 168:1.0 169:1.0 686:1.0 687:1.0 688:1.0 689:1.0 690:1.0 691:1.0 692:1.0 693:1.0 694:1.0 695:1.0 696:1.0 697:1.0 698:1.0 699:1.0 700:1.0 701:1.0 702:1.0 703:1.0 704:1.0 705:1.0 
1.0 40:2.0 164:1.0 431:1.0 443:1.0 444:1.0 706:1.0 707:1.0 708:1.0 709:1.0 710:1.0 711:1.0 712:1.0 713:1.0 714:1.0 715:1.0 716:1.0 717:1.0 
1.0 54:1.0 55:1.0 56:1.0 57:1.0 58:1.0 59:1.0 127:1.0 128:1.0 129:1.0 130:1.0 131:1.0 132:1.0 133:1.0 134:1.0 701:1.0 702:1.0 703:1.0 704:1.0 705:1.0 
1.0 6:1.0 40:1.0 126:1.0 134:1.0 725:1.0 726:1.0 727:1.0 728:1.0 729:1.0 730:1.0 731:2.0 
1.0 26:1.0 40:1.0 467:1.0 468:1.0 469:1.0 470:1.0 471:1.0 745:1.0 746:1.0 747:1.0 748:1.0 749:1.0 750:1.0 751:1.0 752:1.0 753:1.0 754:1.0 755:1.0 
1.0 89:1.0 127:1.0 215:1.0 216:1.0 217:1.0 218:1.0 559:1.0 560:1.0 561:1.0 562:1.0 570:1.0 756:1.0 757:1.0 758:1.0 759:1.0 760:1.0 761:1.0 762:1.0 
1.0 89:1.0 127:1.0 215:1.0 216:1.0 217:1.0 218:1.0 559:1.0 560:1.0 561:1.0 562:1.0 570:1.0 756:1.0 757:1.0 758:1.0 759:1.0 760:1.0 761:1.0 762:1.0 
1.0 89:1.0 127:1.0 215:1.0 216:1.0 217:1.0 218:1.0 559:1.0 560:1.0 561:1.0 562:1.0 570:1.0 756:1.0 757:1.0 758:1.0 759:1.0 760:1.0 761:1.0 762:1.0 
1.0 54:1.0 55:1.0 56:1.0 57:1.0 58:1.0 59:1.0 127:1.0 128:1.0 129:1.0 130:1.0 131:1.0 132:1.0 133:1.0 134:1.0 756:1.0 
1.0 6:1.0 40:1.0 54:1.0 386:1.0 387:1.0 388:1.0 389:1.0 390:1.0 391:1.0 
1.0 26:1.0 139:1.0 140:1.0 141:1.0 186:1.0 187:1.0 256:1.0 770:1.0 771:1.0 772:1.0 773:1.0 
1.0 26:1.0 40:1.0 223:1.0 224:1.0 225:1.0 226:1.0 227:1.0 228:1.0 229:1.0 230:1.0 231:1.0 232:1.0 233:1.0 234:1.0 235:1.0 236:1.0 237:1.0 238:1.0 239:1.0 240:1.0 256:1.0 771:1.0 772:1.0 774:1.0 
1.0 26:1.0 214:1.0 215:1.0 216:1.0 217:1.0 218:1.0 256:1.0 771:1.0 772:1.0 788:1.0 789:1.0 790:1.0 791:1.0 792:1.0 793:1.0 794:1.0 795:1.0 
1.0 54:1.0 55:1.0 56:1.0 57:1.0 58:1.0 59:1.0 127:1.0 128:1.0 129:1.0 130:1.0 131:1.0 132:1.0 133:1.0 134:1.0 256:1.0 771:1.0 772:1.0 774:1.0 
1.0 26:1.0 127:1.0 256:1.0 771:1.0 772:1.0 788:1.0 789:1.0 811:1.0 812:1.0 813:1.0 814:1.0 815:1.0 816:1.0 817:1.0 818:2.0 819:2.0 820:1.0 821:1.0 822:1.0 823:1.0 824:1.0 825:1.0 826:1.0 827:1.0 828:1.0 829:1.0 830:1.0 831:1.0 832:1.0 833:1.0 834:1.0 835:1.0 836:1.0 837:1.0 838:1.0 839:1.0 840:1.0 841:1.0 842:1.0 843:1.0 844:1.0 845:1.0 846:1.0 847:1.0 848:1.0 849:1.0 850:1.0 851:1.0 
1.0 26:1.0 223:1.0 256:1.0 427:1.0 428:1.0 771:1.0 772:1.0 774:1.0 
1.0 26:1.0 256:1.0 771:1.0 772:1.0 774:1.0 852:1.0 853:1.0 854:1.0 855:1.0 856:1.0 857:1.0 858:1.0 
1.0 26:1.0 54:1.0 55:1.0 56:1.0 57:1.0 58:1.0 59:1.0 139:1.0 140:1.0 141:1.0 181:1.0 182:1.0 183:1.0 184:1.0 185:1.0 186:1.0 187:1.0 188:1.0 189:1.0 190:1.0 191:1.0 192:1.0 193:1.0 194:1.0 195:1.0 196:1.0 197:1.0 198:1.0 199:1.0 200:1.0 201:1.0 202:1.0 256:1.0 771:1.0 772:1.0 774:1.0 
1.0 45:1.0 46:1.0 54:1.0 55:1.0 56:1.0 57:1.0 58:1.0 59:1.0 133:1.0 161:1.0 162:1.0 164:1.0 203:1.0 204:1.0 205:1.0 206:1.0 207:1.0 208:1.0 209:1.0 210:1.0 256:1.0 771:1.0 772:1.0 788:1.0 789:1.0 790:1.0 792:1.0 793:1.0 859:1.0 
1.0 6:1.0 54:1.0 55:1.0 56:1.0 57:1.0 58:1.0 59:1.0 133:1.0 165:1.0 166:1.0 167:1.0 168:1.0 169:1.0 210:1.0 256:1.0 771:1.0 772:1.0 774:1.0 
1.0 6:1.0 127:1.0 242:1.0 243:1.0 244:1.0 872:1.0 873:1.0 874:1.0 875:1.0 876:1.0 877:1.0 878:1.0 879:1.0 
1.0 26:1.0 123:1.0 124:1.0 125:1.0 126:1.0 127:1.0 223:1.0 241:1.0 242:1.0 243:1.0 244:1.0 245:1.0 246:1.0 247:1.0 880:1.0 881:1.0 882:1.0 883:1.0 884:1.0 885:1.0 
1.0 54:1.0 55:1.0 56:1.0 57:1.0 58:1.0 59:1.0 127:1.0 128:1.0 129:1.0 130:1.0 131:1.0 132:1.0 133:1.0 134:1.0 241:1.0 242:1.0 243:1.0 244:1.0 245:1.0 246:1.0 247:1.0 
1.0 6:1.0 907:1.0 908:1.0 909:1.0 910:1.0 911:1.0 912:1.0 913:1.0 914:1.0 915:1.0 916:1.0 917:1.0 918:1.0 919:1.0 920:1.0 921:1.0 922:1.0 923:1.0 924:1.0 925:1.0 
1.0 26:1.0 241:1.0 242:1.0 243:1.0 244:1.0 245:1.0 246:1.0 247:1.0 476:1.0 477:1.0 488:1.0 490:2.0 675:1.0 676:1.0 677:1.0 678:1.0 864:1.0 865:1.0 866:1.0 867:1.0 868:1.0 926:1.0 
1.0 26:1.0 40:1.0 242:1.0 243:1.0 244:1.0 245:1.0 246:1.0 247:1.0 818:1.0 819:1.0 927:1.0 928:1.0 929:1.0 930:1.0 931:1.0 932:1.0 933:1.0 934:1.0 935:1.0 936:1.0 937:1.0 938:1.0 939:1.0 940:1.0 941:1.0 942:1.0 943:1.0 944:1.0 945:1.0 946:1.0 947:1.0 
1.0 40:1.0 89:1.0 155:1.0 156:1.0 215:1.0 216:1.0 217:1.0 241:1.0 242:1.0 243:1.0 244:1.0 245:1.0 246:1.0 247:1.0 961:1.0 962:1.0 963:1.0 964:1.0 965:1.0 966:1.0 967:1.0 968:1.0 969:1.0 970:1.0 971:1.0 972:1.0 973:1.0 974:1.0 975:1.0 976:1.0 977:1.0 978:1.0 979:1.0 980:1.0 981:1.0 982:1.0 983:1.0 
1.0 6:1.0 40:1.0 142:1.0 143:1.0 144:1.0 242:1.0 243:1.0 244:1.0 245:1.0 246:1.0 247:1.0 864:1.0 865:1.0 866:1.0 867:1.0 868:1.0 984:1.0 985:1.0 986:1.0 987:1.0 988:1.0 989:1.0 990:1.0 991:1.0 992:1.0 993:1.0 994:1.0 995:1.0 996:1.0 997:1.0 998:1.0 999:1.0 1000:1.0 1001:1.0 1002:1.0 1003:1.0 1004:1.0 
1.0 6:1.0 386:1.0 387:1.0 388:1.0 389:1.0 390:1.0 391:1.0 
1.0 6:1.0 139:1.0 140:1.0 141:1.0 242:1.0 243:1.0 244:1.0 245:1.0 246:1.0 247:1.0 864:1.0 865:1.0 866:1.0 867:1.0 868:1.0 869:1.0 870:1.0 871:1.0 1005:1.0 1006:1.0 1007:1.0 1008:1.0 
1.0 6:1.0 127:1.0 1015:1.0 1016:1.0 1017:1.0 1018:1.0 1019:1.0 1020:1.0 1021:1.0 1022:1.0 
1.0 6:1.0 127:1.0 616:3.0 1045:1.0 1046:1.0 1047:1.0 1048:1.0 1049:1.0 1050:1.0 1051:1.0 1052:1.0 1053:1.0 1054:1.0 1055:1.0 
1.0 26:1.0 215:1.0 216:1.0 217:1.0 218:1.0 1068:1.0 1069:1.0 1070:1.0 1071:1.0 
1.0 54:1.0 55:1.0 56:1.0 57:1.0 58:1.0 59:1.0 127:1.0 128:1.0 129:1.0 130:1.0 131:1.0 132:1.0 133:1.0 134:1.0 1072:1.0 1073:1.0 1074:1.0 1075:1.0 1076:1.0 
1.0 127:1.0 137:1.0 275:1.0 276:1.0 277:1.0 414:1.0 1095:1.0 1096:1.0 1097:1.0 1098:1.0 1099:1.0 1100:1.0 1101:1.0 1102:1.0 1103:1.0 1104:1.0 1105:1.0 1106:1.0 1107:1.0 1108:1.0 1109:1.0 1110:1.0 1111:1.0 
1.0 6:1.0 40:1.0 168:1.0 372:1.0 373:1.0 374:1.0 375:1.0 376:1.0 583:2.0 970:1.0 1112:1.0 1113:1.0 1114:1.0 1115:1.0 1116:1.0 1117:1.0 1118:1.0 1119:1.0 1120:1.0 1121:1.0 1122:1.0 1123:1.0 1124:1.0 1125:1.0 1126:1.0 1127:1.0 1128:1.0 1129:1.0 1130:1.0 1131:1.0 1132:1.0 1133:1.0 1134:1.0 1135:1.0 
1.0 127:1.0 261:1.0 262:1.0 263:1.0 264:1.0 265:1.0 1147:1.0 1148:1.0 1149:1.0 
1.0 40:1.0 54:1.0 61:1.0 89:1.0 133:1.0 890:1.0 899:1.0 900:1.0 901:1.0 902:1.0 903:1.0 904:1.0 1150:1.0 1151:1.0 1152:1.0 1153:1.0 1154:1.0 1155:1.0 1156:1.0 1157:1.0 1158:1.0 1159:1.0 1160:1.0 1161:1.0 1162:1.0 1163:1.0 1164:1.0 1165:1.0 1166:1.0 1167:1.0 1168:1.0 1169:1.0 1170:1.0 1171:1.0 
1.0 40:2.0 54:1.0 55:1.0 56:1.0 57:1.0 58:1.0 59:1.0 133:1.0 164:1.0 210:1.0 1172:1.0 1173:1.0 1174:1.0 1175:1.0 1176:1.0 1177:1.0 1178:1.0 1179:1.0 1180:1.0 1181:1.0 1182:1.0 1183:1.0 1184:1.0 
1.0 89:1.0 127:1.0 969:1.0 970:1.0 1144:1.0 1145:1.0 1146:1.0 1185:1.0 1186:1.0 1187:1.0 1188:1.0 1189:1.0 1190:1.0 1191:1.0 1192:1.0 1193:1.0 1194:1.0 1195:1.0 1196:1.0 1197:1.0 1198:1.0 1199:1.0 1200:1.0 
1.0 6:1.0 40:1.0 54:1.0 55:1.0 56:1.0 57:1.0 58:1.0 59:1.0 133:1.0 210:1.0 1143:1.0 1144:1.0 1145:1.0 1146:1.0 1201:1.0 1202:1.0 1203:1.0 1204:1.0 1205:1.0 1206:1.0 
1.0 6:1.0 127:1.0 535:1.0 536:1.0 537:1.0 538:1.0 539:1.0 540:1.0 541:1.0 542:1.0 543:1.0 544:1.0 
1.0 54:1.0 55:1.0 56:1.0 57:1.0 58:1.0 59:1.0 127:1.0 128:1.0 129:1.0 130:1.0 131:1.0 132:1.0 133:1.0 134:1.0 1143:1.0 1144:1.0 1145:1.0 1146:1.0 
1.0 26:1.0 1144:1.0 1145:1.0 1146:1.0 1207:1.0 1208:1.0 1209:1.0 1210:1.0 1211:1.0 1212:1.0 
1.0 26:1.0 54:1.0 215:1.0 216:1.0 217:1.0 218:1.0 432:1.0 433:1.0 434:1.0 435:1.0 436:1.0 570:1.0 1143:1.0 1144:1.0 1145:1.0 1146:1.0 1208:1.0 1209:1.0 1213:1.0 1214:1.0 1215:1.0 1216:1.0 1217:1.0 1218:1.0 1219:1.0 1220:1.0 1221:1.0 1222:1.0 
1.0 6:1.0 359:1.0 414:1.0 669:1.0 1144:1.0 1145:1.0 1146:1.0 1207:1.0 1208:1.0 1209:1.0 1210:1.0 1211:1.0 1212:1.0 1223:1.0 1224:1.0 1225:1.0 1226:1.0 
1.0 54:1.0 55:1.0 56:1.0 57:1.0 58:1.0 59:1.0 127:1.0 128:1.0 129:1.0 130:1.0 131:1.0 132:1.0 133:1.0 134:1.0 1227:1.0 1228:1.0 1229:1.0 1230:1.0 1231:1.0 1232:1.0 
1.0 6:1.0 40:1.0 99:1.0 372:1.0 373:1.0 374:1.0 375:1.0 376:1.0 1236:1.0 1237:1.0 1238:1.0 1239:1.0 1240:1.0 1241:1.0 1242:1.0 1243:1.0 1244:1.0 1245:1.0 1246:1.0 
1.0 250:1.0 698:1.0 699:1.0 858:1.0 1228:1.0 1229:1.0 1230:1.0 1231:1.0 1232:1.0 1247:1.0 1248:1.0 1249:2.0 1250:2.0 1251:1.0 1252:1.0 1253:1.0 1254:1.0 1255:1.0 1256:2.0 1257:2.0 1258:1.0 1259:1.0 1260:1.0 1261:1.0 1262:1.0 1263:1.0 1264:1.0 1265:1.0 1266:1.0 1267:1.0 1268:1.0 
1.0 89:1.0 619:1.0 1227:1.0 1228:1.0 1229:1.0 1230:1.0 1231:1.0 1232:1.0 1269:1.0 1270:1.0 1271:1.0 1272:1.0 1273:1.0 1274:1.0 1275:1.0 1276:1.0 1277:1.0 
1.0 250:1.0 517:1.0 1227:1.0 1228:1.0 1229:1.0 1230:1.0 1231:1.0 1232:1.0 1248:1.0 1249:1.0 1250:1.0 1251:1.0 1278:1.0 1279:1.0 1280:1.0 1281:1.0 1282:1.0 1283:1.0 1284:1.0 1285:1.0 1286:1.0 1287:1.0 
1.0 127:1.0 250:1.0 1248:1.0 1249:1.0 1250:1.0 1251:1.0 1278:1.0 1288:1.0 1289:1.0 1290:2.0 
1.0 6:1.0 40:1.0 373:1.0 601:1.0 602:1.0 603:1.0 604:1.0 606:1.0 1219:1.0 1233:1.0 1234:1.0 1235:1.0 1280:2.0 1355:1.0 1356:1.0 1357:1.0 1358:1.0 1359:1.0 1360:1.0 1361:1.0 1362:1.0 1363:1.0 1364:1.0 1365:1.0 1366:2.0 1367:2.0 1368:1.0 1369:1.0 1370:1.0 1371:1.0 1372:1.0 1373:1.0 1374:1.0 
1.0 40:2.0 164:1.0 431:1.0 443:1.0 444:1.0 706:1.0 707:1.0 708:1.0 709:1.0 710:1.0 1394:1.0 1395:1.0 1396:1.0 1397:1.0 
0.40260728190907624 164:1.0 431:1.0 432:1.0 433:1.0 434:1.0 435:1.0 436:1.0 895:1.0 978:1.0 1280:1.0 1398:1.0 1399:1.0 1400:1.0 1401:1.0 1402:1.0 1403:1.0 1404:1.0 1405:1.0 1406:1.0 1407:1.0 1408:1.0 1409:1.0 1410:1.0 1411:1.0 1412:1.0 1413:2.0 1414:4.0 1415:1.0 1416:1.0 1417:1.0 1418:1.0 1419:1.0 1420:1.0 1421:1.0 1422:1.0 1423:1.0 1424:1.0 1425:1.0 1426:1.0 
1.0 89:1.0 127:1.0 860:1.0 861:1.0 862:1.0 1228:1.0 1427:1.0 
1.0 26:1.0 372:1.0 373:1.0 374:1.0 375:1.0 376:1.0 1228:1.0 1229:1.0 1230:1.0 1231:1.0 1232:1.0 1275:1.0 1428:1.0 1429:1.0 1430:1.0 1431:1.0 1432:1.0 1433:1.0 1434:1.0 1435:1.0 1436:1.0 1437:1.0 1438:1.0 1439:1.0 1440:1.0 1441:1.0 
1.0 26:1.0 54:1.0 55:1.0 56:1.0 57:1.0 58:1.0 59:1.0 372:1.0 373:1.0 374:1.0 375:1.0 376:1.0 1208:1.0 1209:1.0 1428:1.0 1429:1.0 1430:1.0 1431:1.0 1432:1.0 1442:1.0 1443:1.0 1444:1.0 1445:1.0 1446:1.0 1447:1.0 1448:1.0 
0.4772370401478444 6:1.0 40:1.0 1023:1.0 1189:1.0 1457:1.0 1458:2.0 1459:2.0 1460:2.0 1461:2.0 1462:2.0 1463:1.0 1464:1.0 1465:1.0 1466:1.0 1467:1.0 1468:1.0 1469:1.0 1470:1.0 1471:1.0 
1.0 40:1.0 414:1.0 895:1.0 1452:1.0 1453:1.0 1454:1.0 1455:1.0 1456:1.0 1479:1.0 1480:1.0 1481:1.0 1482:1.0 1483:1.0 1484:1.0 1485:1.0 
1.0 54:1.0 55:1.0 56:1.0 57:1.0 58:1.0 59:1.0 127:1.0 128:1.0 129:1.0 130:1.0 131:1.0 132:1.0 133:1.0 134:1.0 1452:1.0 1453:1.0 1454:1.0 1455:1.0 1456:1.0 
1.0 26:1.0 1208:1.0 1209:1.0 1210:1.0 1453:1.0 1454:1.0 1455:1.0 1456:1.0 1486:1.0 1487:1.0 1488:1.0 1489:1.0 1490:1.0 1491:1.0 
1.0 89:1.0 559:1.0 560:1.0 561:1.0 562:1.0 1493:1.0 1494:1.0 1495:1.0 1496:1.0 
1.0 215:1.0 216:1.0 217:1.0 218:1.0 414:1.0 1494:1.0 1495:1.0 1496:1.0 1543:1.0 1544:1.0 1545:1.0 1546:1.0 
1.0 54:1.0 55:1.0 56:1.0 57:1.0 58:1.0 59:1.0 134:1.0 836:1.0 1494:1.0 1495:1.0 1496:1.0 1547:1.0 1548:1.0 1549:1.0 
1.0 6:1.0 127:1.0 525:1.0 526:1.0 628:1.0 1550:1.0 1551:1.0 1552:1.0 1553:1.0 1554:1.0 1555:1.0 1556:1.0 1557:1.0 1558:1.0 1559:1.0 1560:1.0 1561:1.0 1562:1.0 
1.0 54:1.0 55:1.0 56:1.0 57:1.0 58:1.0 59:1.0 127:1.0 128:1.0 129:1.0 130:1.0 131:1.0 132:1.0 133:1.0 134:1.0 1493:1.0 1494:1.0 1495:1.0 1496:1.0 
1.0 6:1.0 250:1.0 1422:1.0 1563:1.0 1564:1.0 
1.0 703:1.0 797:1.0 798:1.0 1493:1.0 1494:1.0 1495:1.0 1496:1.0 1565:1.0 1566:1.0 1567:1.0 1568:1.0 1569:1.0 1570:1.0 
1.0 6:1.0 1326:1.0 1493:1.0 1494:1.0 1495:1.0 1496:1.0 1575:1.0 1576:1.0 1577:1.0 1578:1.0 1579:1.0 1580:1.0 
1.0 6:1.0 146:1.0 225:1.0 1586:1.0 1587:1.0 1588:1.0 1589:1.0 1590:1.0 1591:1.0 1592:1.0 1593:1.0 1594:1.0 1595:1.0 1596:1.0 1597:1.0 1598:1.0 1599:1.0 1600:1.0 
1.0 195:1.0 196:1.0 197:1.0 198:1.0 225:1.0 796:1.0 797:1.0 798:1.0 799:1.0 810:1.0 873:1.0 874:1.0 1601:1.0 1602:1.0 1603:1.0 
1.0 6:1.0 299:1.0 300:1.0 301:1.0 526:1.0 1494:1.0 1495:1.0 1496:1.0 1520:1.0 1521:1.0 1522:1.0 1523:1.0 1524:1.0 1525:1.0 1604:1.0 1605:1.0 1606:1.0 1607:1.0 1608:1.0 
1.0 6:1.0 532:1.0 583:2.0 1609:1.0 1610:1.0 1611:1.0 
1.0 26:1.0 54:1.0 55:1.0 56:1.0 57:1.0 58:1.0 59:1.0 139:1.0 140:1.0 141:1.0 181:1.0 182:1.0 183:1.0 184:1.0 185:1.0 186:1.0 187:1.0 188:1.0 189:1.0 190:1.0 191:1.0 192:1.0 193:1.0 194:1.0 195:1.0 196:1.0 197:1.0 198:1.0 199:1.0 200:1.0 201:1.0 202:1.0 1493:1.0 1494:1.0 1495:1.0 1496:1.0 
1.0 168:1.0 169:1.0 1612:1.0 
1.0 26:1.0 478:1.0 586:1.0 822:2.0 823:2.0 824:2.0 825:2.0 1614:1.0 1615:1.0 1616:1.0 1617:1.0 1618:1.0 1619:1.0 1620:1.0 1621:1.0 1622:1.0 1623:1.0 1624:1.0 
1.0 6:1.0 127:1.0 301:1.0 526:1.0 1108:1.0 1605:1.0 1633:1.0 1634:1.0 1635:1.0 1636:1.0 1637:1.0 1638:1.0 1639:1.0 1640:1.0 1641:1.0 1642:1.0 1643:1.0 1644:1.0 1645:1.0 
1.0 6:1.0 127:1.0 1108:1.0 1109:1.0 1110:1.0 1111:1.0 1166:1.0 1646:1.0 1647:1.0 1648:1.0 1649:1.0 1650:1.0 1651:1.0 1652:1.0 1653:1.0 1654:1.0 1655:1.0 1656:1.0 1657:1.0 1658:1.0 1659:1.0 1660:1.0 1661:1.0 1662:1.0 1663:1.0 1664:1.0 
1.0 26:1.0 166:1.0 167:1.0 168:1.0 169:1.0 690:1.0 901:1.0 902:1.0 903:1.0 904:1.0 1683:1.0 1684:1.0 1685:1.0 1686:1.0 1687:1.0 1688:1.0 1689:1.0 1690:1.0 1691:1.0 1692:1.0 1693:1.0 1694:1.0 1695:1.0 
1.0 26:1.0 40:1.0 310:1.0 1108:1.0 1109:1.0 1110:1.0 1111:1.0 1664:1.0 1696:1.0 1697:1.0 1698:1.0 1699:1.0 1700:1.0 1701:1.0 1702:1.0 1703:1.0 1704:1.0 1705:1.0 1706:1.0 1707:1.0 1708:1.0 
1.0 40:1.0 378:1.0 414:1.0 666:1.0 1108:1.0 1109:1.0 1110:1.0 1111:1.0 1664:1.0 1723:1.0 1724:1.0 1725:1.0 1726:1.0 1727:1.0 1728:1.0 1729:1.0 
1.0 26:1.0 225:1.0 751:1.0 1709:1.0 1710:1.0 1711:1.0 1712:1.0 1713:1.0 1714:1.0 1730:1.0 1731:1.0 1732:1.0 1733:1.0 1734:1.0 1735:1.0 1736:1.0 1737:1.0 1738:1.0 
1.0 40:1.0 166:1.0 337:1.0 690:1.0 1739:1.0 1740:1.0 1741:1.0 1742:1.0 1743:1.0 1744:1.0 1745:1.0 1746:1.0 1747:1.0 1748:1.0 1749:1.0 1750:1.0 1751:1.0 1752:1.0 
1.0 6:1.0 127:1.0 478:1.0 749:1.0 750:1.0 751:1.0 1618:1.0 1776:1.0 1777:1.0 1778:1.0 1779:1.0 
1.0 26:1.0 488:1.0 489:1.0 490:2.0 491:1.0 492:1.0 493:1.0 494:1.0 495:1.0 1745:1.0 1746:1.0 1747:1.0 1748:1.0 1749:1.0 
1.0 40:1.0 264:1.0 344:1.0 345:1.0 346:1.0 347:1.0 348:1.0 1717:1.0 1718:1.0 1719:1.0 1720:1.0 1721:1.0 1740:1.0 1745:1.0 1746:1.0 1747:1.0 1748:1.0 1749:1.0 1761:1.0 1763:1.0 1764:1.0 1765:1.0 
1.0 164:1.0 892:1.0 893:1.0 894:1.0 895:1.0 1485:1.0 1854:1.0 1855:1.0 1856:1.0 
1.0 6:1.0 127:1.0 156:1.0 336:1.0 337:1.0 338:1.0 813:1.0 1674:2.0 1675:1.0 1720:1.0 1863:1.0 1864:1.0 1865:1.0 1866:1.0 1867:1.0 1868:1.0 1869:1.0 1870:1.0 1871:1.0 1872:1.0 1873:1.0 1874:1.0 
1.0 26:1.0 127:1.0 139:1.0 140:1.0 141:1.0 643:1.0 644:1.0 809:2.0 824:1.0 985:1.0 1214:2.0 1215:2.0 1292:1.0 1875:1.0 1876:1.0 1877:1.0 1878:1.0 1879:1.0 1880:1.0 1881:1.0 1882:1.0 1883:1.0 1884:1.0 1885:1.0 1886:1.0 1887:2.0 1888:2.0 1889:2.0 
1.0 40:1.0 123:1.0 124:1.0 125:1.0 126:1.0 488:1.0 1050:1.0 1890:1.0 1891:1.0 1892:1.0 1893:1.0 1894:1.0 1895:1.0 1896:1.0 1897:1.0 1898:1.0 1899:1.0 
0.28684536324662335 26:1.0 166:1.0 167:1.0 168:1.0 169:1.0 643:1.0 644:1.0 840:1.0 1900:1.0 1901:1.0 1902:1.0 1903:1.0 1904:1.0 1905:1.0 1906:1.0 1907:1.0 1908:1.0 1909:1.0 1910:1.0 1911:1.0 1912:1.0 1913:1.0 1914:1.0 1915:1.0 1916:1.0 1917:1.0 1918:1.0 1919:1.0 1920:1.0 
1.0 40:1.0 378:1.0 641:1.0 1280:1.0 1898:1.0 1921:1.0 1922:1.0 1923:1.0 1924:1.0 1925:1.0 1926:1.0 1927:1.0 1928:1.0 1929:1.0 1930:1.0 1931:1.0 1932:1.0 1933:1.0 1934:1.0 1935:1.0 1936:1.0 1937:1.0 1938:1.0 1939:1.0 1940:1.0 
1.0 72:1.0 89:1.0 165:1.0 166:1.0 167:1.0 168:1.0 169:1.0 762:1.0 885:1.0 1950:1.0 1951:1.0 1952:1.0 1953:1.0 1954:1.0 1955:1.0 1956:1.0 1957:1.0 1958:1.0 1959:1.0 1960:1.0 1961:1.0 1962:1.0 
1.0 89:1.0 127:1.0 673:1.0 674:1.0 1963:1.0 1964:1.0 1965:1.0 1966:1.0 1967:1.0 1968:1.0 1969:1.0 1970:1.0 1971:1.0 1972:1.0 1973:1.0 
0.4473243496870085 26:1.0 927:1.0 928:2.0 929:2.0 930:1.0 931:1.0 932:1.0 933:1.0 934:1.0 1974:1.0 1975:1.0 1976:1.0 1977:1.0 1978:1.0 
1.0 89:1.0 1455:1.0 1456:1.0 1979:1.0 1980:1.0 1981:1.0 1982:1.0 1983:1.0 1984:1.0 1985:1.0 
1.0 40:1.0 143:1.0 144:1.0 1455:1.0 1456:1.0 1979:1.0 1980:1.0 1986:1.0 1987:1.0 1988:1.0 1989:1.0 1990:1.0 1991:1.0 1992:1.0 
1.0 6:1.0 1455:1.0 1456:1.0 1980:1.0 1993:1.0 1994:1.0 1995:1.0 1996:1.0 
1.0 40:1.0 164:1.0 431:1.0 443:1.0 444:1.0 706:1.0 707:1.0 708:1.0 709:1.0 710:1.0 2016:1.0 2017:1.0 2018:1.0 
1.0 40:2.0 164:1.0 378:1.0 431:1.0 443:1.0 444:1.0 706:1.0 707:1.0 708:1.0 709:1.0 710:1.0 1627:1.0 2032:1.0 2033:2.0 2034:2.0 2035:1.0 2036:1.0 2037:1.0 2038:1.0 
1.0 6:1.0 40:1.0 64:1.0 165:1.0 166:1.0 167:1.0 168:1.0 169:1.0 864:1.0 990:1.0 2097:1.0 2098:1.0 2099:1.0 2100:1.0 2101:1.0 2102:1.0 2103:1.0 2104:1.0 2105:1.0 2106:1.0 2107:1.0 2108:1.0 2109:1.0 2110:1.0 2111:1.0 2112:1.0 2113:1.0 2114:1.0 
1.0 6:1.0 161:1.0 162:1.0 166:1.0 167:1.0 168:1.0 169:1.0 209:1.0 2092:1.0 2093:1.0 2094:1.0 2115:1.0 2125:1.0 2126:1.0 2127:1.0 2128:1.0 2129:1.0 2130:1.0 2131:1.0 2132:1.0 2133:1.0 2134:1.0 2135:1.0 2136:1.0 2137:1.0 2138:1.0 2139:1.0 
1.0 40:1.0 89:1.0 749:1.0 750:1.0 751:1.0 873:1.0 874:1.0 1601:1.0 1860:1.0 2108:1.0 2109:1.0 2140:1.0 2141:1.0 2142:1.0 2143:1.0 2144:1.0 2145:1.0 2146:1.0 2147:1.0 2148:1.0 2149:1.0 
1.0 6:1.0 40:1.0 1235:1.0 1919:1.0 2150:1.0 2151:1.0 2152:1.0 2153:1.0 2154:1.0 2155:1.0 2156:1.0 2157:1.0 2158:1.0 2159:1.0 2160:1.0 2161:1.0 2162:1.0 2163:1.0 2164:1.0 2165:1.0 2166:1.0 2167:1.0 2168:1.0 2169:1.0 2170:1.0 2171:1.0 
1.0 40:1.0 77:1.0 89:1.0 91:1.0 92:1.0 93:1.0 156:1.0 189:1.0 190:1.0 191:1.0 192:1.0 193:1.0 338:1.0 2108:2.0 2145:1.0 2146:1.0 2196:1.0 2197:1.0 2198:1.0 2199:1.0 2200:1.0 2201:1.0 2202:1.0 2203:1.0 2204:1.0 2205:1.0 2206:1.0 2207:1.0 2208:1.0 2209:1.0 2210:1.0 2211:1.0 2212:1.0 2213:1.0 2214:1.0 2215:1.0 2216:1.0 2217:1.0 2218:1.0 2219:1.0 2220:1.0 2221:1.0 2222:1.0 2223:1.0 2224:2.0 2225:2.0 2226:2.0 2227:1.0 2228:1.0 2229:1.0 2230:1.0 2231:1.0 2232:1.0 
1.0 6:1.0 40:1.0 91:1.0 290:1.0 2233:1.0 2234:1.0 2235:1.0 2236:1.0 2237:1.0 
1.0 6:1.0 127:1.0 165:1.0 166:1.0 167:1.0 168:1.0 169:1.0 2238:1.0 2239:1.0 2240:1.0 2241:1.0 2242:1.0 2243:1.0 2244:1.0 2245:1.0 2246:1.0 2247:1.0 2248:1.0 2249:1.0 2250:1.0 
1.0 127:1.0 797:1.0 798:1.0 2248:1.0 2249:1.0 2250:1.0 2251:1.0 2252:1.0 2253:1.0 2254:1.0 2255:1.0 2256:1.0 2257:1.0 2258:1.0 2259:1.0 2260:1.0 2261:1.0 
0.3431771475444354 26:1.0 40:1.0 942:1.0 2248:1.0 2249:1.0 2250:1.0 2262:1.0 2263:1.0 2264:1.0 2265:1.0 2266:1.0 2267:1.0 2268:1.0 2269:1.0 2270:1.0 2271:1.0 2272:1.0 2273:1.0 2274:1.0 2275:1.0 2276:1.0 
1.0 26:1.0 166:1.0 1802:1.0 2179:1.0 2277:1.0 2278:1.0 2279:1.0 2280:1.0 2281:1.0 2282:1.0 
1.0 164:1.0 431:1.0 2283:1.0 2284:1.0 2285:1.0 2286:1.0 2287:1.0 2288:1.0 2289:1.0 
1.0 26:1.0 409:1.0 532:1.0 1610:1.0 2179:1.0 2290:1.0 2291:1.0 2292:1.0 2293:1.0 2294:1.0 2295:1.0 2296:1.0 2297:1.0 2298:1.0 2299:1.0 
1.0 26:1.0 40:1.0 47:1.0 48:1.0 49:1.0 50:1.0 51:1.0 1632:1.0 1710:1.0 1711:1.0 1712:1.0 1713:1.0 2195:1.0 2300:1.0 2301:1.0 2302:1.0 
1.0 40:2.0 164:1.0 378:1.0 431:1.0 443:1.0 444:1.0 710:1.0 1398:1.0 1399:1.0 1400:1.0 2018:1.0 2303:1.0 2304:1.0 2305:1.0 2306:1.0 2307:1.0 2308:1.0 2309:1.0 2310:1.0 
1.0 1990:1.0 
1.0 89:1.0 182:1.0 183:2.0 184:1.0 271:1.0 1050:1.0 1561:1.0 2067:1.0 2322:1.0 2323:1.0 2324:1.0 2325:1.0 2326:1.0 2327:1.0 2328:1.0 2329:1.0 2330:1.0 2331:1.0 2332:1.0 2333:1.0 2334:1.0 2335:1.0 2336:2.0 2337:1.0 2338:1.0 2339:1.0 
1.0 26:1.0 127:1.0 156:1.0 338:1.0 583:1.0 641:1.0 1107:1.0 1535:1.0 1592:1.0 1593:1.0 1594:1.0 1595:1.0 1836:1.0 2343:1.0 2344:1.0 2345:1.0 2346:1.0 2347:1.0 2348:1.0 2349:1.0 2350:1.0 2351:1.0 2352:1.0 2353:1.0 2354:1.0 2355:1.0 2356:1.0 2357:1.0 2358:1.0 2359:1.0 2360:1.0 2361:1.0 2362:1.0 
1.0 6:1.0 869:1.0 1635:1.0 1636:1.0 1637:1.0 1638:1.0 2357:1.0 2358:1.0 2359:1.0 2363:1.0 2364:1.0 2365:1.0 2366:1.0 2367:1.0 2368:1.0 2369:1.0 2370:1.0 2371:1.0 2372:1.0 2373:1.0 2374:1.0 2375:1.0 
1.0 127:1.0 250:1.0 749:1.0 750:1.0 751:1.0 1251:1.0 1491:1.0 2376:1.0 2377:1.0 2378:1.0 2379:1.0 
1.0 6:1.0 166:1.0 167:1.0 168:1.0 169:1.0 716:1.0 749:1.0 750:1.0 751:1.0 869:1.0 990:1.0 1427:1.0 2100:1.0 2357:1.0 2358:1.0 2359:1.0 2374:1.0 2375:1.0 2387:1.0 2388:2.0 2389:2.0 2390:2.0 2391:2.0 2392:1.0 2393:1.0 2394:1.0 2395:1.0 2396:1.0 2397:1.0 2398:1.0 2399:1.0 2400:1.0 2401:1.0 2402:1.0 2403:1.0 2404:1.0 2405:1.0 2406:1.0 2407:1.0 2408:1.0 
1.0 6:1.0 357:1.0 358:1.0 359:1.0 360:1.0 361:1.0 1174:1.0 1632:1.0 2427:1.0 2428:1.0 2429:1.0 2430:1.0 2431:1.0 2432:1.0 2433:1.0 2434:1.0 2435:1.0 2436:1.0 2437:1.0 2438:1.0 2439:1.0 
1.0 26:1.0 2440:1.0 2441:1.0 2442:1.0 2443:1.0 2444:1.0 2445:1.0 2446:1.0 2447:1.0 2448:1.0 2449:1.0 2450:1.0 
1.0 26:1.0 488:1.0 489:1.0 490:2.0 491:1.0 492:1.0 493:1.0 494:1.0 495:1.0 869:1.0 2357:1.0 2358:1.0 2359:1.0 2374:1.0 2375:1.0 2451:1.0 2452:1.0 2453:1.0 
1.0 215:1.0 216:1.0 217:1.0 218:1.0 570:1.0 1740:1.0 1988:1.0 1989:1.0 2285:1.0 2454:1.0 2455:1.0 2456:1.0 2457:1.0 2458:1.0 2459:1.0 2460:1.0 2461:1.0 2462:1.0 2463:1.0 2464:1.0 2465:1.0 2466:1.0 
1.0 6:1.0 167:1.0 222:1.0 2510:1.0 2511:1.0 2512:1.0 2513:1.0 2514:1.0 2515:1.0 2516:1.0 2517:1.0 2518:1.0 2519:1.0 2520:1.0 2521:1.0 2522:1.0 2523:1.0 2524:1.0 2525:1.0 2526:1.0 2527:1.0 2528:1.0 2529:1.0 2530:1.0 
1.0 6:1.0 40:1.0 2541:1.0 2542:1.0 2543:1.0 2544:1.0 
1.0 6:1.0 127:1.0 270:1.0 271:1.0 272:1.0 273:1.0 274:1.0 275:1.0 276:1.0 277:1.0 278:1.0 279:1.0 280:1.0 281:1.0 282:1.0 283:1.0 284:1.0 285:1.0 289:1.0 290:1.0 291:1.0 292:1.0 293:1.0 294:1.0 585:1.0 586:1.0 587:1.0 589:1.0 2524:1.0 2545:1.0 2546:1.0 2547:1.0 2548:1.0 2549:1.0 2550:1.0 2551:1.0 2552:1.0 2553:1.0 2554:1.0 2555:1.0 2556:1.0 2557:1.0 2558:1.0 
1.0 6:1.0 40:1.0 123:1.0 124:1.0 125:1.0 126:2.0 134:1.0 725:1.0 726:1.0 727:1.0 728:1.0 729:1.0 730:1.0 731:1.0 
0.9672057157207165 6:1.0 40:1.0 756:1.0 1561:1.0 2332:1.0 2333:1.0 2334:1.0 2335:1.0 2514:1.0 2563:1.0 2564:1.0 2565:1.0 2566:1.0 2567:1.0 2568:1.0 2569:1.0 2570:1.0 2571:1.0 2572:1.0 2573:1.0 2574:1.0 2575:1.0 
1.0 127:1.0 414:1.0 921:1.0 1804:1.0 1805:1.0 1806:1.0 2576:1.0 2577:1.0 2578:1.0 2579:1.0 2580:1.0 2581:1.0 2582:1.0 2583:1.0 2584:1.0 2585:1.0 2586:1.0 2587:1.0 
1.0 6:1.0 40:1.0 1561:1.0 1652:1.0 1653:1.0 1654:1.0 1962:1.0 2332:1.0 2333:1.0 2334:1.0 2335:1.0 2563:1.0 2588:1.0 2589:1.0 2590:1.0 2591:1.0 2592:1.0 2593:1.0 2594:1.0 
1.0 26:1.0 127:1.0 197:1.0 1367:1.0 2319:1.0 2320:1.0 2321:1.0 2595:1.0 2596:1.0 2597:1.0 2598:1.0 2599:1.0 2600:1.0 2601:1.0 2602:1.0 2603:1.0 
1.0 6:1.0 127:1.0 215:2.0 216:1.0 217:1.0 218:1.0 378:1.0 570:1.0 1561:1.0 2332:1.0 2333:1.0 2334:1.0 2335:1.0 2355:1.0 2563:1.0 2604:1.0 2605:1.0 2606:1.0 2607:1.0 
0.8728732343607145 26:1.0 64:1.0 225:2.0 1280:1.0 1919:1.0 2169:1.0 2170:1.0 2171:1.0 2623:1.0 2624:1.0 2625:1.0 2626:1.0 2627:1.0 2628:1.0 2629:1.0 2630:1.0 2631:1.0 2632:1.0 2633:1.0 2634:1.0 2635:1.0 2636:1.0 2637:1.0 2638:1.0 2639:1.0 2640:1.0 
1.0 40:1.0 134:1.0 184:1.0 1561:1.0 2055:1.0 2056:1.0 2332:1.0 2333:1.0 2334:1.0 2335:1.0 2530:1.0 2563:1.0 2641:1.0 2642:1.0 2643:1.0 2644:1.0 2645:1.0 2646:1.0 2647:1.0 2648:1.0 
1.0 167:1.0 222:1.0 1561:1.0 2332:1.0 2333:1.0 2334:1.0 2335:1.0 2518:1.0 2519:1.0 2520:1.0 2521:1.0 2522:1.0 2523:1.0 2649:1.0 2650:1.0 2651:1.0 2652:1.0 2653:1.0 2654:1.0 
1.0 40:1.0 164:1.0 1295:1.0 1296:1.0 1675:1.0 2687:1.0 2688:1.0 2689:1.0 2690:1.0 2691:1.0 2692:1.0 2693:1.0 2694:1.0 
1.0 6:1.0 34:1.0 45:1.0 46:1.0 165:1.0 166:2.0 167:2.0 168:2.0 169:2.0 1675:1.0 2689:1.0 2690:1.0 2691:1.0 2692:1.0 2693:1.0 2695:1.0 2696:1.0 2697:1.0 2698:1.0 
1.0 89:1.0 182:1.0 183:2.0 184:1.0 1050:1.0 1561:1.0 2067:1.0 2325:1.0 2326:1.0 2327:1.0 2328:1.0 2329:1.0 2330:1.0 2331:1.0 2332:1.0 2333:1.0 2334:1.0 2335:1.0 2336:2.0 2516:1.0 2699:1.0 2700:1.0 2701:1.0 
1.0 127:1.0 197:1.0 414:1.0 2702:1.0 2703:1.0 2704:1.0 2705:1.0 2706:1.0 2708:1.0 2709:1.0 2710:1.0 2711:1.0 
1.0 40:1.0 134:1.0 179:1.0 184:1.0 197:1.0 2055:1.0 2056:1.0 2530:1.0 2641:1.0 2642:1.0 2643:1.0 2644:1.0 2645:1.0 2646:1.0 2647:1.0 2648:1.0 2707:1.0 2709:1.0 2712:1.0 2713:1.0 2714:1.0 2715:1.0 2716:1.0 2717:1.0 
1.0 123:1.0 124:1.0 125:1.0 126:1.0 127:1.0 2707:1.0 2718:1.0 2719:1.0 2720:1.0 2721:1.0 2722:1.0 2723:1.0 2724:1.0 2725:1.0 2726:1.0 
1.0 165:1.0 166:2.0 167:2.0 168:2.0 169:2.0 195:1.0 196:1.0 197:1.0 198:1.0 500:1.0 532:1.0 1235:1.0 1610:1.0 1794:1.0 1866:1.0 2179:1.0 2297:1.0 2298:1.0 2299:1.0 2672:1.0 2673:1.0 2727:1.0 2728:1.0 2729:1.0 2730:1.0 2731:1.0 2732:1.0 2733:1.0 2734:1.0 2735:1.0 2736:1.0 2737:1.0 2738:1.0 2739:1.0 2740:1.0 2741:1.0 2742:1.0 2743:1.0 2744:1.0 2745:1.0 2746:1.0 2747:1.0 
1.0 6:1.0 40:1.0 992:1.0 2752:1.0 2753:1.0 2754:1.0 2755:1.0 2756:1.0 2757:1.0 2758:1.0 2759:1.0 2760:1.0 2761:1.0 2762:1.0 2763:1.0 2764:1.0 2765:1.0 
0.6949984672639984 40:1.0 467:1.0 468:1.0 469:1.0 470:1.0 471:1.0 1990:1.0 2762:1.0 2763:1.0 2764:1.0 2765:1.0 2766:1.0 2767:1.0 2768:1.0 2769:1.0 2770:1.0 2771:1.0 2772:1.0 2773:1.0 2774:1.0 2775:1.0 
1.0 6:1.0 156:1.0 337:1.0 338:1.0 643:1.0 644:1.0 645:1.0 646:1.0 824:1.0 1521:1.0 2740:1.0 2798:1.0 2799:1.0 2800:1.0 2801:1.0 2802:1.0 2803:1.0 2804:1.0 2805:1.0 2806:1.0 2807:1.0 2808:1.0 2809:1.0 
0.5957142101352466 314:1.0 414:1.0 1374:2.0 1790:2.0 2312:2.0 2313:2.0 2314:2.0 2315:2.0 2817:1.0 2818:1.0 2819:1.0 2820:1.0 2821:1.0 2822:1.0 2823:2.0 
1.0 40:1.0 89:1.0 836:1.0 1374:1.0 1714:1.0 1790:1.0 1838:1.0 2312:1.0 2313:1.0 2314:1.0 2315:1.0 2823:1.0 2824:1.0 2825:1.0 2826:1.0 2827:1.0 2828:1.0 2829:1.0 2830:1.0 2831:1.0 2832:1.0 2833:1.0 
1.0 26:1.0 127:1.0 2834:1.0 2835:1.0 2836:1.0 2837:1.0 2838:1.0 2839:1.0 2840:1.0 2841:1.0 2842:1.0 2843:1.0 2844:1.0 2845:1.0 2846:1.0 2847:1.0 2848:1.0 2849:1.0 
1.0 26:1.0 40:1.0 1328:1.0 1427:1.0 1569:1.0 2903:1.0 2904:1.0 2905:1.0 2906:1.0 2907:1.0 2908:1.0 2909:1.0 
1.0 204:1.0 749:1.0 750:1.0 751:1.0 797:1.0 798:1.0 2909:1.0 2910:1.0 2911:1.0 2912:1.0 2913:1.0 2914:1.0 2915:1.0 2916:1.0 2917:1.0 2918:1.0 
1.0 29:1.0 40:1.0 264:1.0 532:1.0 1610:1.0 2179:1.0 2297:1.0 2298:1.0 2299:1.0 2380:1.0 2381:1.0 2382:1.0 2383:1.0 2384:1.0 2385:1.0 2386:1.0 2909:1.0 
1.0 64:1.0 65:1.0 89:1.0 127:1.0 215:1.0 216:1.0 217:1.0 218:1.0 373:1.0 374:1.0 375:1.0 376:1.0 533:1.0 534:1.0 570:1.0 2976:1.0 2977:1.0 2978:1.0 2979:1.0 2980:1.0 2981:2.0 
1.0 26:1.0 59:1.0 139:1.0 140:1.0 141:1.0 1008:1.0 2998:1.0 2999:1.0 3000:1.0 3001:1.0 3002:1.0 3003:1.0 
0.5679129808513138 64:1.0 155:1.0 156:1.0 157:1.0 158:1.0 414:1.0 982:1.0 1280:1.0 1284:1.0 1919:2.0 2630:1.0 2640:1.0 3048:1.0 3049:1.0 3050:1.0 3051:1.0 3052:1.0 3053:1.0 3054:1.0 3055:1.0 3056:1.0 3057:1.0 3058:2.0 3059:2.0 3060:2.0 3061:1.0 3062:1.0 3063:1.0 3064:1.0 3065:1.0 3066:1.0 3067:1.0 3068:1.0 3069:1.0 3070:1.0 
0.8868494519652461 6:1.0 3038:1.0 3039:1.0 3040:1.0 3041:1.0 3042:1.0 3043:1.0 3044:1.0 3082:1.0 3083:1.0 3084:1.0 3085:1.0 3086:1.0 3087:1.0 3088:1.0 3089:1.0 
1.0 6:1.0 3109:1.0 3110:1.0 3111:1.0 3112:1.0 3113:1.0 3125:1.0 
1.0 6:1.0 40:1.0 2791:1.0 3126:1.0 3127:1.0 3128:1.0 3129:1.0 3130:1.0 3131:1.0 3132:1.0 3133:1.0 
1.0 6:1.0 40:1.0 143:1.0 144:1.0 383:1.0 1020:1.0 3129:1.0 3134:1.0 3135:1.0 3136:1.0 3137:1.0 3138:1.0 3139:1.0 3140:1.0 3141:1.0 3142:1.0 3143:1.0 3144:1.0 3145:1.0 3146:1.0 
1.0 6:1.0 40:1.0 142:1.0 143:1.0 144:1.0 871:1.0 2740:1.0 2807:1.0 2808:1.0 2809:1.0 3128:1.0 3129:1.0 3130:1.0 3131:1.0 3132:1.0 3133:1.0 3147:1.0 3148:1.0 3149:1.0 3150:1.0 3151:1.0 3152:1.0 3153:1.0 3154:1.0 3155:1.0 3156:1.0 
1.0 6:1.0 2560:1.0 2561:1.0 2562:1.0 3129:1.0 3130:1.0 3131:1.0 3132:1.0 3142:1.0 3143:1.0 3144:1.0 3145:1.0 3157:1.0 3158:1.0 3159:1.0 3160:1.0 
1.0 6:1.0 2909:1.0 3129:1.0 3130:1.0 3131:1.0 3132:1.0 3161:1.0 3162:1.0 3163:1.0 3164:1.0 
1.0 6:1.0 820:1.0 3129:1.0 3130:1.0 3131:1.0 3132:1.0 3165:1.0 3166:1.0 3167:1.0 3168:1.0 3169:1.0 3170:1.0 3171:1.0 3172:1.0 3173:1.0 3174:1.0 
1.0 6:1.0 641:1.0 940:1.0 1933:1.0 1934:1.0 3129:1.0 3130:1.0 3131:1.0 3132:1.0 3142:1.0 3143:1.0 3144:1.0 3145:1.0 3158:1.0 3160:1.0 3175:1.0 3176:1.0 3177:1.0 3178:1.0 3179:1.0 3180:1.0 3181:1.0 3182:1.0 
1.0 6:1.0 127:1.0 2007:1.0 3128:1.0 3129:1.0 3130:1.0 3131:1.0 3132:1.0 3133:1.0 3142:1.0 3143:1.0 3144:1.0 3145:1.0 3212:1.0 3213:1.0 3214:1.0 3215:1.0 3216:1.0 3217:1.0 3218:1.0 3219:1.0 3220:1.0 3221:1.0 3222:1.0 3223:1.0 3224:1.0 3225:1.0 
0.1166834536358875 26:1.0 127:1.0 156:1.0 338:1.0 983:1.0 1142:1.0 2027:1.0 2028:1.0 2029:1.0 2210:1.0 2583:1.0 3226:1.0 3227:1.0 3228:1.0 3229:1.0 3230:1.0 3231:1.0 
1.0 6:1.0 40:1.0 995:1.0 996:1.0 3128:2.0 3129:2.0 3130:2.0 3131:2.0 3132:2.0 3133:2.0 3232:1.0 3233:1.0 3234:1.0 3235:1.0 3236:1.0 3237:1.0 3238:1.0 3239:1.0 3240:1.0 
1.0 6:1.0 3142:1.0 3143:1.0 3144:1.0 3145:1.0 3241:1.0 3242:1.0 3243:2.0 3244:2.0 3245:1.0 3246:1.0 3247:1.0 3248:1.0 3249:1.0 3250:1.0 3251:1.0 
1.0 6:1.0 40:1.0 587:1.0 2909:1.0 3129:1.0 3130:1.0 3131:1.0 3132:1.0 3142:1.0 3143:1.0 3144:1.0 3145:1.0 3160:1.0 3252:1.0 3253:1.0 3254:1.0 3255:1.0 3256:1.0 3257:1.0 3258:1.0 3259:1.0 3260:1.0 3261:1.0 
1.0 6:1.0 40:1.0 550:1.0 1214:1.0 1215:1.0 2007:1.0 2721:1.0 3199:1.0 3219:1.0 3220:1.0 3221:1.0 3262:1.0 3263:1.0 3264:1.0 3265:1.0 3266:1.0 3267:1.0 3268:1.0 3269:1.0 3270:1.0 3271:1.0 3272:1.0 3273:1.0 3274:1.0 3275:1.0 3276:1.0 3277:1.0 3278:1.0 3279:1.0 3280:1.0 3281:1.0 
1.0 6:1.0 641:1.0 1521:1.0 1701:1.0 1933:1.0 1934:1.0 2033:1.0 2692:1.0 2721:1.0 2909:1.0 3129:1.0 3130:1.0 3131:1.0 3132:1.0 3282:1.0 3283:1.0 3284:1.0 3285:1.0 3286:1.0 3287:1.0 3288:1.0 3289:1.0 3290:1.0 3291:1.0 3292:1.0 3293:1.0 3294:1.0 3295:1.0 3296:1.0 3297:1.0 3298:1.0 3299:1.0 3300:1.0 
1.0 40:1.0 89:1.0 551:1.0 769:1.0 972:1.0 973:1.0 974:1.0 1501:1.0 2372:1.0 3239:1.0 3301:1.0 3302:1.0 3303:1.0 3304:1.0 3305:1.0 3306:1.0 3307:1.0 3308:1.0 3309:1.0 3310:1.0 3311:1.0 
1.0 6:1.0 40:1.0 142:1.0 143:1.0 144:1.0 2108:1.0 3142:1.0 3143:1.0 3144:1.0 3145:1.0 3195:1.0 3225:1.0 3328:2.0 3329:2.0 3330:2.0 3331:2.0 3332:2.0 3333:2.0 3334:2.0 3335:2.0 3336:2.0 3337:2.0 3338:2.0 3339:2.0 3340:2.0 3341:2.0 3342:2.0 3343:1.0 3344:1.0 3345:1.0 3346:1.0 3347:1.0 3348:1.0 
1.0 6:1.0 2155:1.0 3128:1.0 3129:1.0 3130:1.0 3131:1.0 3132:1.0 3133:1.0 3239:2.0 3349:1.0 3350:1.0 3351:1.0 3352:1.0 3353:1.0 3354:1.0 3355:1.0 3356:1.0 
1.0 6:1.0 3142:1.0 3143:1.0 3144:1.0 3357:1.0 3358:1.0 3359:1.0 3360:1.0 3361:1.0 
1.0 6:1.0 858:1.0 2721:1.0 2909:1.0 2974:1.0 3129:1.0 3130:1.0 3131:1.0 3132:1.0 3142:2.0 3143:2.0 3144:2.0 3145:2.0 3225:1.0 3295:1.0 3296:1.0 3362:1.0 3363:1.0 3364:1.0 3365:1.0 3366:1.0 3367:1.0 3368:1.0 3369:1.0 3370:1.0 
1.0 26:1.0 127:1.0 1919:1.0 2169:1.0 2170:1.0 2171:1.0 3128:1.0 3129:1.0 3130:1.0 3131:1.0 3132:1.0 3133:1.0 3142:1.0 3143:1.0 3144:1.0 3145:1.0 3222:1.0 3223:1.0 3224:1.0 3225:1.0 3371:1.0 3372:1.0 3373:1.0 3374:1.0 3375:1.0 3376:1.0 3377:1.0 3378:1.0 3379:1.0 3380:1.0 3381:1.0 
1.0 6:1.0 925:1.0 3142:1.0 3143:1.0 3144:1.0 3145:1.0 3225:1.0 3256:1.0 3257:1.0 3258:1.0 3259:1.0 3260:1.0 3261:1.0 3382:1.0 3383:1.0 3384:1.0 3385:1.0 3386:1.0 3387:1.0 3388:1.0 
1.0 89:1.0 127:1.0 3335:1.0 3404:1.0 3405:1.0 3406:1.0 3407:1.0 3408:1.0 3409:1.0 3410:1.0 3411:1.0 3412:1.0 3413:1.0 3414:1.0 3415:1.0 3416:1.0 3417:1.0 3418:1.0 3419:1.0 3420:1.0 3421:1.0 
1.0 26:1.0 127:1.0 142:1.0 143:1.0 144:1.0 373:1.0 1707:1.0 1708:1.0 3422:1.0 3423:1.0 3424:1.0 3425:1.0 3426:1.0 3427:1.0 3428:1.0 3429:1.0 3430:1.0 3431:1.0 3432:1.0 
1.0 6:1.0 40:1.0 568:1.0 569:1.0 3430:1.0 3431:1.0 3432:1.0 3433:1.0 3434:1.0 3435:1.0 3436:1.0 3437:1.0 3438:1.0 3439:1.0 3440:1.0 3441:1.0 3442:1.0 3443:1.0 3444:1.0 3445:1.0 
1.0 6:1.0 127:1.0 395:1.0 605:1.0 3416:1.0 3417:1.0 3418:1.0 3419:1.0 3420:1.0 3421:1.0 3430:1.0 3456:1.0 3457:1.0 3458:1.0 3459:1.0 3460:1.0 3461:1.0 3462:1.0 3463:1.0 3464:1.0 
1.0 6:1.0 40:1.0 64:1.0 119:1.0 2113:1.0 2114:1.0 3417:1.0 3418:1.0 3419:1.0 3420:1.0 3421:1.0 3430:1.0 3431:1.0 3432:1.0 3455:1.0 3487:1.0 3488:1.0 3489:1.0 3490:1.0 3491:1.0 3492:1.0 3493:1.0 3494:1.0 3495:1.0 3496:1.0 
1.0 6:1.0 156:1.0 338:1.0 3417:1.0 3418:1.0 3419:1.0 3420:1.0 3421:1.0 3430:1.0 3431:1.0 3432:1.0 3443:1.0 3444:1.0 3445:1.0 3455:1.0 3488:1.0 3489:1.0 3490:1.0 3497:1.0 3498:1.0 3499:1.0 3500:1.0 3501:1.0 3502:1.0 3503:1.0 3504:1.0 3505:1.0 3506:1.0 3507:1.0 3508:1.0 3509:1.0 3510:1.0 
1.0 26:1.0 448:1.0 449:1.0 1896:1.0 2368:1.0 2451:1.0 2721:1.0 2809:1.0 3061:1.0 3195:1.0 3548:1.0 3549:1.0 3550:1.0 3551:1.0 3552:1.0 3553:1.0 3554:1.0 3555:1.0 3556:1.0 3557:1.0 3558:1.0 3559:1.0 3560:1.0 
1.0 6:1.0 40:1.0 395:1.0 598:1.0 605:1.0 1020:1.0 2740:1.0 2809:1.0 3464:1.0 3558:1.0 3561:1.0 3562:1.0 3563:1.0 3564:1.0 3565:1.0 3566:1.0 3567:1.0 3568:1.0 3569:1.0 
1.0 40:1.0 89:1.0 500:1.0 861:1.0 2169:1.0 2738:1.0 2739:1.0 2740:1.0 3417:1.0 3418:1.0 3419:1.0 3420:1.0 3421:1.0 3430:2.0 3431:2.0 3432:2.0 3454:1.0 3455:1.0 3570:2.0 3571:2.0 3572:1.0 3573:1.0 3574:1.0 3575:1.0 3576:1.0 3577:1.0 
1.0 89:1.0 314:1.0 990:1.0 1740:1.0 2100:1.0 2678:1.0 2679:1.0 3604:1.0 3605:1.0 3606:1.0 3607:1.0 3608:1.0 3609:1.0 3610:1.0 3611:1.0 3612:1.0 3613:1.0 3614:1.0 3615:1.0 
1.0 6:1.0 3043:1.0 3044:1.0 3417:1.0 3418:1.0 3419:1.0 3420:1.0 3421:1.0 3455:1.0 3458:1.0 3521:1.0 3616:1.0 3617:1.0 3618:1.0 3619:1.0 3620:1.0 3621:1.0 
1.0 6:1.0 3417:1.0 3418:1.0 3419:1.0 3420:1.0 3421:1.0 3455:1.0 3622:1.0 3623:1.0 3624:1.0 3625:1.0 3626:1.0 3627:1.0 3628:1.0 
1.0 26:1.0 3430:1.0 3431:1.0 3432:1.0 3442:1.0 3652:1.0 3653:1.0 3654:1.0 3655:1.0 3656:1.0 3657:1.0 3658:1.0 3659:1.0 3660:1.0 3661:1.0 3662:1.0 3663:1.0 3664:1.0 3665:1.0 3666:1.0 3667:1.0 
1.0 1740:1.0 3671:1.0 3677:1.0 3678:1.0 3679:1.0 3680:1.0 3681:1.0 
1.0 89:1.0 127:1.0 873:1.0 874:1.0 2896:1.0 3414:1.0 3682:1.0 3683:1.0 3684:1.0 3685:1.0 3686:1.0 3687:1.0 3688:1.0 3689:1.0 3690:1.0 3691:1.0 3692:1.0 3693:1.0 3694:1.0 
1.0 6:1.0 1727:1.0 1728:1.0 1729:1.0 3695:1.0 3696:1.0 3697:1.0 3698:1.0 3699:1.0 3700:1.0 
1.0 6:1.0 40:1.0 873:1.0 874:1.0 1092:1.0 1093:1.0 1094:1.0 1601:1.0 2184:1.0 2740:1.0 2809:1.0 3708:1.0 3709:1.0 3710:1.0 3717:1.0 3718:1.0 3719:1.0 3720:1.0 3721:1.0 3722:1.0 3723:1.0 3724:1.0 3725:1.0 
1.0 26:1.0 3734:1.0 3762:1.0 3763:1.0 3764:1.0 3765:1.0 3766:1.0 3767:1.0 3768:1.0 3769:1.0 3770:1.0 3771:1.0 3772:1.0 3773:1.0 3774:1.0 3775:1.0 
1.0 26:1.0 890:1.0 1690:1.0 2873:1.0 2874:1.0 3311:1.0 3788:1.0 3789:1.0 3790:1.0 3791:1.0 3792:1.0 3793:1.0 3794:1.0 3795:1.0 3796:1.0 3797:1.0 3798:1.0 3799:1.0 
1.0 127:1.0 142:1.0 143:1.0 144:1.0 414:1.0 2184:1.0 2740:1.0 2809:1.0 2896:1.0 3685:1.0 3686:1.0 3687:1.0 3708:1.0 3709:1.0 3710:1.0 3724:1.0 3725:1.0 3800:1.0 3801:1.0 3802:1.0 3803:1.0 
1.0 40:1.0 89:1.0 1189:1.0 1240:1.0 1362:1.0 1363:1.0 1364:1.0 1365:1.0 1535:1.0 1722:1.0 2980:1.0 3810:1.0 3811:1.0 3812:1.0 3813:1.0 3814:1.0 3815:1.0 3816:1.0 3817:1.0 3818:1.0 3819:1.0 3820:1.0 
1.0 6:1.0 127:1.0 198:1.0 2584:1.0 3355:1.0 3773:2.0 3774:2.0 3775:2.0 3821:1.0 3822:1.0 3823:1.0 3824:1.0 3825:1.0 3826:1.0 3827:1.0 3828:2.0 
1.0 6:1.0 40:1.0 142:1.0 143:1.0 144:1.0 3638:1.0 3643:1.0 3860:1.0 3861:1.0 3862:1.0 3863:1.0 3864:1.0 3865:1.0 3866:1.0 3867:1.0 3868:1.0 
1.0 26:1.0 127:1.0 2485:2.0 3869:2.0 3870:2.0 3871:2.0 
1.0 6:1.0 2992:1.0 2993:1.0 3808:1.0 3872:1.0 3873:1.0 3874:1.0 3875:1.0 3876:1.0 3877:1.0 3878:1.0 
1.0 6:1.0 888:1.0 889:1.0 1094:1.0 3723:1.0 3808:1.0 3893:1.0 3894:1.0 3895:1.0 3896:1.0 3897:1.0 3898:1.0 3899:1.0 3900:1.0 
1.0 6:1.0 127:1.0 2856:1.0 2857:1.0 2858:1.0 2859:1.0 2860:1.0 3745:1.0 3811:1.0 3812:1.0 3813:1.0 3901:1.0 3902:1.0 3903:1.0 3904:1.0 3905:1.0 3906:1.0 3907:1.0 3908:1.0 3909:1.0 3910:1.0 3911:1.0 3912:1.0 3913:1.0 3914:1.0 3915:1.0 3916:1.0 3917:1.0 
1.0 6:1.0 142:1.0 143:1.0 144:1.0 146:1.0 586:1.0 1280:1.0 2629:1.0 2630:1.0 2857:2.0 2858:2.0 2859:2.0 3066:1.0 3459:1.0 3927:1.0 3928:1.0 3929:1.0 3930:1.0 3931:1.0 3932:1.0 3933:1.0 3934:1.0 3935:1.0 3936:1.0 3937:1.0 3938:1.0 3939:1.0 3940:1.0 3941:1.0 3942:1.0 3943:1.0 3944:1.0 
1.0 6:1.0 2043:1.0 3840:1.0 3949:1.0 3950:1.0 3951:1.0 3952:1.0 3953:1.0 3954:1.0 3955:1.0 3956:1.0 3957:1.0 3958:1.0 3959:1.0 3960:1.0 3961:1.0 3962:1.0 3963:1.0 
1.0 6:1.0 127:1.0 890:2.0 1160:2.0 2079:1.0 2471:1.0 2472:1.0 3964:1.0 3965:1.0 3966:1.0 3967:1.0 3968:1.0 3969:1.0 3970:1.0 3971:1.0 3972:1.0 3973:1.0 3974:1.0 
1.0 57:1.0 127:1.0 165:1.0 166:1.0 167:1.0 168:1.0 169:1.0 3661:1.0 3975:1.0 
1.0 6:1.0 77:1.0 81:1.0 127:1.0 538:1.0 890:1.0 1134:1.0 1160:1.0 1324:1.0 1497:1.0 1498:1.0 1499:1.0 1500:1.0 1501:1.0 1502:1.0 1503:1.0 1504:1.0 1505:1.0 1506:1.0 1507:1.0 1508:1.0 2079:1.0 2199:1.0 2200:1.0 2201:1.0 2202:1.0 2203:1.0 3972:1.0 3973:1.0 3974:1.0 
1.0 6:1.0 215:1.0 216:1.0 217:1.0 218:1.0 310:1.0 890:1.0 1160:1.0 2079:1.0 2607:1.0 3972:1.0 3973:1.0 3974:1.0 3984:1.0 3985:1.0 3986:1.0 3987:1.0 3988:1.0 3989:1.0 
1.0 6:1.0 250:1.0 1422:1.0 1563:1.0 1564:1.0 
1.0 6:1.0 83:1.0 222:1.0 586:1.0 587:1.0 890:1.0 1160:1.0 1631:1.0 2079:1.0 2518:1.0 2519:1.0 2672:1.0 2857:1.0 2858:1.0 2859:1.0 3031:1.0 3032:1.0 3033:1.0 3808:1.0 3973:1.0 3974:1.0 4016:1.0 4017:1.0 4018:1.0 4019:1.0 4020:1.0 4021:1.0 4022:1.0 4023:1.0 4024:1.0 4025:1.0 4026:1.0 4027:1.0 4028:1.0 4029:1.0 4030:1.0 4031:1.0 4032:1.0 4033:1.0 4034:1.0 
1.0 26:1.0 115:1.0 1388:1.0 4043:1.0 4044:1.0 4045:1.0 4046:1.0 4047:1.0 
1.0 6:1.0 1727:1.0 3213:1.0 3214:1.0 3215:1.0 3310:1.0 4053:1.0 4054:1.0 4055:1.0 4056:1.0 4057:1.0 4058:1.0 4059:1.0 
1.0 26:1.0 4066:1.0 4067:1.0 4068:1.0 
1.0 26:1.0 586:1.0 587:1.0 4044:1.0 4069:1.0 4070:1.0 4071:1.0 4072:1.0 
1.0 40:1.0 54:1.0 61:1.0 89:1.0 4086:1.0 4087:1.0 4088:1.0 4089:1.0 4090:2.0 4091:1.0 4092:1.0 4093:1.0 4094:1.0 
1.0 6:1.0 127:1.0 246:1.0 643:1.0 644:1.0 824:1.0 1121:1.0 1577:1.0 1809:1.0 1886:1.0 3095:1.0 3096:1.0 3097:1.0 3098:1.0 3099:1.0 4050:1.0 4051:1.0 4052:1.0 4102:1.0 4103:1.0 4104:1.0 4105:1.0 4106:1.0 4107:1.0 4108:1.0 4109:1.0 4110:1.0 4111:1.0 4112:1.0 4113:1.0 4114:1.0 4115:1.0 4116:1.0 4117:1.0 4118:1.0 
1.0 6:1.0 4133:1.0 4134:1.0 4135:1.0 4136:1.0 4137:1.0 4138:1.0 4139:1.0 4140:1.0 
1.0 749:1.0 750:1.0 751:1.0 1235:1.0 1794:1.0 4154:1.0 4155:1.0 4156:1.0 4157:1.0 4158:1.0 4159:1.0 4160:1.0 4161:1.0 4162:1.0 
1.0 26:1.0 40:1.0 4050:1.0 4164:1.0 4165:1.0 4166:1.0 4167:1.0 4168:1.0 4169:1.0 4170:1.0 4171:1.0 
1.0 6:1.0 127:1.0 143:1.0 144:1.0 2896:2.0 3684:2.0 3685:2.0 3686:2.0 3687:2.0 4177:1.0 4178:1.0 4179:1.0 4180:1.0 4181:1.0 
1.0 6:1.0 1650:1.0 4182:1.0 4183:1.0 4184:1.0 4185:1.0 
1.0 6:1.0 314:1.0 1235:1.0 2108:1.0 2109:1.0 2151:1.0 2152:1.0 4195:1.0 4196:1.0 4197:1.0 4198:1.0 4199:1.0 4200:1.0 4201:1.0 4202:1.0 4203:1.0 4204:1.0 4205:1.0 4206:1.0 4207:1.0 
1.0 26:1.0 4269:1.0 
1.0 26:1.0 4336:1.0 4337:1.0 4338:1.0 4339:1.0 4340:1.0 4341:1.0 4342:1.0 4343:1.0 4344:1.0 4345:1.0 
0.12551026210498678 26:1.0 40:1.0 373:2.0 1919:1.0 2114:1.0 2176:2.0 2177:2.0 3059:1.0 3060:1.0 3540:1.0 3789:1.0 3790:1.0 4045:1.0 4293:1.0 4319:1.0 4320:1.0 4321:1.0 4343:1.0 4344:1.0 4345:1.0 4346:2.0 4347:1.0 4348:1.0 4349:1.0 4350:1.0 4351:1.0 4352:1.0 4353:1.0 4354:1.0 4355:1.0 4356:1.0 4357:1.0 4358:1.0 4359:1.0 4360:1.0 4361:1.0 4362:1.0 4363:1.0 4364:1.0 4365:1.0 4366:1.0 4367:1.0 4368:1.0 4369:1.0 4370:1.0 4371:1.0 4372:1.0 4373:1.0 4374:1.0 4375:1.0 4376:1.0 4377:1.0 4378:1.0 4379:1.0 4380:1.0 4381:1.0 4382:1.0 4383:1.0 4384:1.0 4385:1.0 4386:1.0 4387:2.0 4388:2.0 4389:2.0 4390:2.0 4391:1.0 4392:1.0 4393:1.0 
1.0 26:1.0 40:1.0 1663:1.0 2053:1.0 2336:1.0 4124:1.0 4453:1.0 4454:1.0 4455:1.0 4456:1.0 4457:1.0 4458:1.0 
1.0 6:1.0 40:1.0 299:1.0 4519:1.0 4520:1.0 4521:1.0 4522:1.0 4523:1.0 4524:1.0 4525:1.0 4526:1.0 4527:1.0 4528:1.0 4529:1.0 4530:1.0 4531:1.0 4532:1.0 4533:1.0 
1.0 40:1.0 798:1.0 1121:1.0 2666:1.0 2681:1.0 3591:1.0 4515:1.0 4534:1.0 4535:1.0 4536:1.0 4537:1.0 4538:1.0 4539:1.0 4540:1.0 4541:1.0 4542:1.0 4543:1.0 
1.0 26:1.0 40:1.0 946:1.0 947:1.0 1206:1.0 2451:1.0 3470:1.0 3471:1.0 3525:1.0 3560:1.0 4473:1.0 4515:2.0 4516:1.0 4517:1.0 4551:1.0 4552:1.0 4553:1.0 4554:1.0 4555:1.0 4556:1.0 4557:1.0 4558:1.0 4559:1.0 
0.585146330973484 6:1.0 40:1.0 156:1.0 2868:1.0 3525:1.0 3560:1.0 4298:1.0 4473:1.0 4514:1.0 4515:1.0 4516:1.0 4517:1.0 4518:1.0 4560:1.0 4561:1.0 4562:1.0 4563:1.0 4564:1.0 4565:1.0 4566:1.0 4567:1.0 4568:1.0 4569:1.0 4570:1.0 4571:1.0 4572:1.0 4573:1.0 
1.0 6:1.0 127:1.0 165:1.0 166:1.0 167:1.0 168:1.0 169:1.0 3525:1.0 4473:1.0 4515:1.0 4516:1.0 4574:1.0 4575:1.0 4576:1.0 
1.0 26:1.0 91:1.0 1402:1.0 4577:1.0 4578:1.0 4579:1.0 4580:1.0 4581:1.0 
1.0 26:1.0 40:1.0 115:1.0 142:1.0 143:1.0 144:1.0 393:1.0 1209:1.0 2627:1.0 3120:1.0 3191:1.0 3206:1.0 4580:1.0 4581:1.0 4582:1.0 4587:1.0 4588:1.0 4589:1.0 4590:1.0 4591:1.0 4592:1.0 4593:1.0 4594:1.0 4595:1.0 4596:1.0 4597:1.0 4598:1.0 
1.0 26:1.0 1328:1.0 1569:1.0 2908:1.0 4401:1.0 4580:1.0 4581:1.0 4599:1.0 4600:1.0 4601:1.0 4602:1.0 
1.0 414:1.0 1160:1.0 3880:1.0 3973:1.0 4603:1.0 4604:1.0 4605:1.0 4606:1.0 4607:1.0 4608:1.0 4609:1.0 4610:1.0 
1.0 6:1.0 3910:1.0 3911:1.0 4627:1.0 4628:1.0 4629:1.0 4630:1.0 4631:1.0 4632:1.0 
0.6824195012160822 6:1.0 2429:1.0 2647:1.0 3811:1.0 4623:1.0 4624:1.0 4625:1.0 4626:1.0 4633:1.0 4634:1.0 4635:1.0 4636:1.0 4637:1.0 4638:1.0 4639:1.0 4640:1.0 4641:1.0 4642:1.0 
1.0 26:1.0 885:1.0 1953:1.0 1954:1.0 2647:1.0 4625:1.0 4626:1.0 4658:1.0 4659:1.0 4660:1.0 4661:1.0 4662:1.0 
1.0 6:1.0 3811:1.0 4641:1.0 4642:1.0 4663:1.0 4664:1.0 4665:1.0 4666:1.0 
1.0 6:1.0 3811:1.0 4641:1.0 4642:1.0 4686:1.0 4687:1.0 4688:1.0 4689:1.0 4690:1.0 4691:1.0 
1.0 2122:1.0 2429:1.0 2647:1.0 2988:1.0 3811:1.0 4114:1.0 4413:1.0 4625:1.0 4626:1.0 4639:1.0 4640:1.0 4641:1.0 4642:1.0 4712:1.0 4713:1.0 4714:1.0 4715:1.0 4716:1.0 4717:1.0 4718:1.0 4719:1.0 4720:1.0 4721:1.0 
1.0 6:1.0 182:1.0 2429:1.0 2647:1.0 3811:1.0 4625:1.0 4626:1.0 4639:1.0 4640:1.0 4641:1.0 4642:1.0 4646:1.0 4731:1.0 4732:1.0 4733:1.0 
1.0 6:1.0 91:1.0 306:1.0 1937:1.0 4612:1.0 4749:1.0 4750:1.0 4751:1.0 4752:1.0 4753:1.0 4754:1.0 4755:1.0 4756:1.0 4757:1.0 
1.0 6:1.0 45:1.0 139:1.0 140:1.0 141:1.0 1008:1.0 2647:1.0 3551:1.0 4625:1.0 4626:1.0 4726:1.0 4777:1.0 4778:1.0 4779:1.0 4780:1.0 4781:1.0 4782:1.0 4783:1.0 4784:1.0 4785:1.0 
1.0 6:1.0 378:1.0 1798:1.0 1953:1.0 1956:1.0 2033:1.0 2075:1.0 2076:1.0 2077:1.0 3811:1.0 3846:1.0 4641:1.0 4642:1.0 4806:1.0 4807:1.0 4808:1.0 4809:1.0 4810:1.0 4811:1.0 4812:1.0 
1.0 26:1.0 4813:1.0 
1.0 6:1.0 333:1.0 2086:1.0 2087:1.0 2429:1.0 2584:1.0 2647:1.0 3811:1.0 4000:1.0 4001:1.0 4625:1.0 4626:1.0 4639:1.0 4640:1.0 4641:1.0 4642:1.0 4644:1.0 4645:1.0 4646:1.0 4814:1.0 
1.0 6:1.0 40:1.0 378:1.0 1953:1.0 1956:1.0 2075:1.0 2076:1.0 2077:1.0 4812:1.0 4815:2.0 
1.0 6:1.0 141:1.0 2429:1.0 2647:1.0 3811:1.0 4625:1.0 4626:1.0 4639:1.0 4640:1.0 4641:1.0 4642:1.0 4816:1.0 4817:1.0 4818:1.0 4819:1.0 4820:1.0 
1.0 6:1.0 189:1.0 190:1.0 191:1.0 275:1.0 276:1.0 277:1.0 306:1.0 1738:1.0 3348:1.0 4612:1.0 4748:1.0 4828:1.0 4829:1.0 4830:1.0 4831:1.0 4832:1.0 4833:1.0 4834:1.0 4835:1.0 4836:1.0 4837:1.0 4838:1.0 
1.0 26:1.0 4862:1.0 
1.0 6:1.0 189:1.0 190:1.0 191:1.0 561:1.0 562:1.0 2647:1.0 4625:1.0 4626:1.0 4748:1.0 4834:1.0 4835:1.0 4855:1.0 4873:1.0 4874:1.0 4875:1.0 4876:1.0 4877:1.0 4878:1.0 
1.0 6:1.0 942:1.0 3811:1.0 4641:1.0 4642:1.0 4892:1.0 4893:1.0 4894:1.0 4895:1.0 4896:1.0 4897:1.0 4898:1.0 4899:1.0 
1.0 6:1.0 2068:1.0 2693:1.0 3811:1.0 4641:1.0 4642:1.0 4906:1.0 4907:1.0 4908:1.0 4909:1.0 4910:1.0 4911:1.0 
1.0 26:1.0 306:1.0 3910:1.0 3911:1.0 4612:1.0 4632:1.0 4755:1.0 4912:1.0 4913:1.0 4914:1.0 4915:1.0 4916:1.0 4917:1.0 
1.0 6:1.0 139:1.0 140:1.0 141:1.0 348:1.0 593:1.0 4944:1.0 4945:1.0 4946:1.0 4947:1.0 4948:1.0 4949:1.0 4950:1.0 4951:1.0 4952:1.0 4953:1.0 4954:1.0 4955:1.0 4956:1.0 
1.0 6:1.0 189:1.0 190:1.0 191:1.0 720:1.0 2465:1.0 2466:1.0 2692:1.0 4748:1.0 5005:1.0 5006:1.0 5007:1.0 5008:1.0 
1.0 26:1.0 5026:1.0 
1.0 26:1.0 118:1.0 1107:1.0 4253:1.0 4628:1.0 5027:1.0 5028:1.0 5029:1.0 5030:1.0 5031:1.0 5032:1.0 5033:1.0 
1.0 6:1.0 306:1.0 3355:1.0 3827:1.0 4612:1.0 5047:1.0 5048:1.0 5049:1.0 5050:1.0 5051:1.0 5052:1.0 
1.0 64:1.0 183:1.0 314:1.0 1363:1.0 2067:1.0 3095:1.0 3096:1.0 3097:1.0 3098:1.0 3099:1.0 3975:1.0 5057:1.0 5058:1.0 5059:1.0 5060:1.0 5061:1.0 5062:1.0 5063:1.0 
1.0 6:1.0 256:1.0 1838:1.0 5064:1.0 5065:1.0 5066:1.0 5067:1.0 5068:1.0 5069:1.0 5070:1.0 5071:1.0 5072:1.0 
1.0 6:1.0 5082:1.0 5083:1.0 5084:1.0 5085:1.0 
1.0 26:1.0 142:1.0 143:1.0 144:1.0 314:1.0 5086:1.0 
0.18988944307686217 6:1.0 885:1.0 2647:1.0 3457:1.0 3458:1.0 3459:1.0 3460:1.0 4625:1.0 4626:1.0 5087:1.0 5088:1.0 5089:1.0 5090:1.0 5091:1.0 5092:1.0 5093:1.0 
1.0 26:1.0 189:1.0 190:1.0 191:1.0 306:1.0 307:1.0 526:1.0 4612:1.0 4748:1.0 4753:1.0 4754:1.0 5044:1.0 5102:1.0 5103:1.0 5104:1.0 5105:1.0 5106:1.0 5107:1.0 
1.0 6:1.0 306:1.0 2476:1.0 3661:1.0 4612:1.0 4915:1.0 5117:1.0 5118:1.0 5119:1.0 5120:1.0 5121:1.0 5122:1.0 5123:1.0 
1.0 6:1.0 2429:1.0 2647:1.0 3471:1.0 3472:1.0 3473:1.0 3811:1.0 4625:1.0 4626:1.0 4639:1.0 4640:1.0 4641:1.0 4642:1.0 4872:1.0 5145:1.0 5146:1.0 
1.0 6:1.0 139:1.0 1548:1.0 1727:1.0 2367:1.0 2437:1.0 2647:1.0 3310:1.0 4625:1.0 4626:1.0 4645:1.0 4646:1.0 5155:1.0 5156:1.0 5157:1.0 5158:1.0 5159:1.0 
1.0 26:1.0 3811:1.0 4641:1.0 4642:1.0 4666:1.0 5160:1.0 5161:1.0 5162:1.0 5163:1.0 
0.17046684349993135 6:1.0 306:1.0 307:1.0 310:1.0 2104:1.0 2999:1.0 4492:1.0 4612:1.0 4803:1.0 4804:1.0 4849:1.0 5169:1.0 5170:1.0 5171:1.0 5172:1.0 5173:1.0 5174:1.0 5175:1.0 5176:1.0 5177:1.0 5178:1.0 5179:1.0 
1.0 6:1.0 189:1.0 190:1.0 191:1.0 204:1.0 205:1.0 407:1.0 2647:1.0 4625:1.0 4626:1.0 4695:1.0 4748:1.0 4855:1.0 4874:1.0 4875:1.0 5184:1.0 5185:1.0 5186:1.0 5187:1.0 5188:1.0 5189:1.0 5190:1.0 
1.0 306:1.0 797:1.0 798:1.0 1312:1.0 3811:1.0 4218:1.0 4612:1.0 4641:1.0 4642:1.0 5191:1.0 5192:1.0 5193:1.0 5194:1.0 5195:1.0 5196:1.0 
1.0 1740:1.0 5198:1.0 5199:1.0 5200:1.0 5201:1.0 5202:1.0 
1.0 26:1.0 169:1.0 3504:1.0 3505:1.0 3506:1.0 3507:1.0 3508:1.0 3509:1.0 4729:1.0 4730:1.0 5208:1.0 5209:1.0 5210:1.0 5211:1.0 5212:1.0 5213:1.0 5214:1.0 
1.0 6:1.0 3854:2.0 4289:2.0 5070:1.0 5071:1.0 5072:1.0 5248:1.0 5249:1.0 5250:1.0 5251:1.0 5252:1.0 5253:1.0 5254:1.0 
1.0 26:1.0 40:1.0 54:1.0 61:1.0 427:1.0 1280:1.0 1366:1.0 1367:1.0 3153:1.0 5070:1.0 5255:1.0 5256:1.0 5257:1.0 5258:1.0 
1.0 6:1.0 40:1.0 1273:1.0 1753:1.0 1754:1.0 1755:1.0 1756:1.0 1757:1.0 1758:1.0 1759:1.0 2380:1.0 
1.0 6:1.0 5293:1.0 5294:1.0 5295:1.0 5296:1.0 5297:1.0 5298:1.0 
1.0 6:1.0 40:1.0 494:1.0 495:1.0 1804:1.0 1805:1.0 1806:1.0 1807:1.0 1808:1.0 1809:1.0 1810:1.0 2168:1.0 3551:1.0 5307:1.0 5308:1.0 5309:1.0 5310:1.0 5311:1.0 5312:1.0 5313:1.0 5314:1.0 5315:1.0 5316:1.0 5317:1.0 5318:1.0 5319:1.0 5320:1.0 
1.0 6:1.0 127:1.0 1780:1.0 1781:1.0 1782:1.0 1783:1.0 1784:1.0 3473:1.0 5146:1.0 5300:1.0 5301:1.0 5302:1.0 5303:1.0 5321:1.0 
1.0 6:1.0 127:1.0 1780:1.0 1781:1.0 1782:1.0 1783:1.0 1784:1.0 5325:1.0 5326:1.0 5327:1.0 5328:1.0 
1.0 29:1.0 40:1.0 264:1.0 532:1.0 1610:1.0 2179:1.0 2297:1.0 2298:1.0 2299:1.0 2380:1.0 2381:1.0 2382:1.0 2383:1.0 2384:1.0 2385:1.0 2386:1.0 5329:1.0 5330:1.0 5331:1.0 
1.0 40:1.0 156:1.0 338:1.0 344:1.0 345:1.0 346:1.0 347:1.0 348:1.0 1740:1.0 1761:1.0 1762:1.0 2356:1.0 2357:1.0 2358:1.0 2359:1.0 2360:1.0 2361:1.0 2362:1.0 5329:1.0 5330:1.0 5331:1.0 
1.0 40:1.0 89:1.0 606:1.0 2370:1.0 2999:1.0 3674:1.0 4803:1.0 5332:1.0 5333:1.0 5334:1.0 5335:1.0 5336:1.0 5337:1.0 5338:1.0 5339:1.0 5340:1.0 5341:1.0 5342:1.0 5343:1.0 5344:1.0 5345:1.0 5346:1.0 5347:1.0 5348:1.0 
1.0 26:1.0 40:1.0 223:1.0 427:1.0 2791:1.0 5349:1.0 
1.0 6:1.0 2438:1.0 2439:1.0 3380:1.0 3501:1.0 5355:1.0 5360:1.0 5361:1.0 5362:1.0 5363:1.0 5364:1.0 5365:1.0 5366:1.0 5367:1.0 5368:1.0 5369:1.0 5370:1.0 
1.0 26:1.0 3380:1.0 5355:1.0 5360:1.0 5361:1.0 5371:1.0 5372:1.0 5373:1.0 5374:1.0 5375:1.0 5376:1.0 
1.0 6:1.0 40:1.0 2677:1.0 2678:1.0 2679:1.0 3380:1.0 3501:1.0 5355:1.0 5360:1.0 5361:1.0 5363:1.0 5364:1.0 5365:1.0 5366:1.0 5367:1.0 5377:1.0 5378:1.0 
1.0 6:1.0 156:1.0 337:1.0 338:1.0 643:1.0 644:1.0 645:1.0 646:1.0 824:1.0 1521:1.0 2798:1.0 2799:1.0 2800:1.0 2801:1.0 2802:1.0 2803:1.0 2804:1.0 3380:1.0 5355:1.0 5360:1.0 5361:1.0 5372:1.0 5373:1.0 5374:1.0 5379:1.0 
1.0 26:1.0 196:1.0 3380:1.0 3764:1.0 5355:1.0 5380:1.0 5381:1.0 5382:1.0 5383:1.0 5384:1.0 5385:1.0 5386:1.0 5387:1.0 5388:1.0 
1.0 164:1.0 431:1.0 1709:1.0 1710:1.0 1711:1.0 1712:1.0 1713:1.0 1714:1.0 3380:1.0 3501:1.0 5355:1.0 5360:1.0 5361:1.0 5363:1.0 5364:1.0 5365:1.0 5366:1.0 5367:1.0 5377:1.0 
1.0 40:1.0 89:1.0 142:1.0 143:1.0 144:1.0 166:1.0 167:1.0 168:1.0 198:1.0 215:1.0 216:1.0 217:1.0 218:1.0 1134:1.0 1379:1.0 1380:1.0 1381:1.0 1382:1.0 1383:1.0 1384:1.0 2417:1.0 2584:1.0 3380:1.0 5355:1.0 5360:1.0 5361:1.0 5389:1.0 5390:1.0 5391:1.0 5392:1.0 5393:1.0 5394:1.0 5395:1.0 5396:1.0 
1.0 89:1.0 3380:1.0 3501:1.0 5355:1.0 5360:1.0 5361:1.0 5363:1.0 5364:1.0 5365:1.0 5366:1.0 5367:1.0 5377:1.0 5397:1.0 5398:1.0 
1.0 40:1.0 164:1.0 431:1.0 822:1.0 823:1.0 824:1.0 825:1.0 1619:1.0 1782:1.0 2575:1.0 3380:1.0 5355:1.0 5395:1.0 5410:1.0 5411:1.0 5412:1.0 5413:1.0 5414:1.0 
1.0 26:1.0 127:1.0 220:1.0 583:1.0 5431:1.0 5438:1.0 5439:1.0 5440:1.0 5441:1.0 5442:2.0 5443:1.0 5444:1.0 5445:1.0 5446:1.0 5447:1.0 5448:1.0 5449:1.0 5450:1.0 5451:1.0 5452:1.0 5453:1.0 5454:1.0 5455:1.0 5456:1.0 
1.0 127:1.0 261:1.0 262:1.0 263:1.0 264:2.0 265:1.0 1235:1.0 3286:1.0 3764:1.0 5385:1.0 5386:1.0 5457:1.0 5458:1.0 5459:1.0 5460:1.0 5461:1.0 5462:1.0 5463:1.0 
1.0 40:1.0 89:1.0 195:1.0 196:1.0 197:1.0 198:1.0 756:1.0 2479:1.0 2480:1.0 2481:1.0 2482:1.0 2483:1.0 2484:1.0 2485:1.0 2486:1.0 2487:1.0 2488:1.0 2747:1.0 5473:1.0 5474:1.0 5475:1.0 5476:1.0 5477:1.0 5478:1.0 5479:1.0 5480:1.0 5481:1.0 
1.0 6:1.0 127:1.0 161:1.0 162:1.0 209:1.0 215:1.0 216:1.0 217:1.0 218:1.0 570:1.0 643:1.0 644:1.0 824:1.0 1886:1.0 2803:1.0 2804:1.0 5491:1.0 5492:1.0 5493:1.0 5494:1.0 5495:1.0 5496:1.0 
1.0 40:1.0 89:1.0 182:1.0 183:2.0 184:1.0 1121:1.0 1561:1.0 2067:1.0 2322:1.0 2323:1.0 2324:1.0 2325:1.0 2326:1.0 2327:1.0 2328:1.0 2329:1.0 2330:1.0 2331:1.0 2332:1.0 2333:1.0 2334:1.0 2335:1.0 4402:1.0 5497:1.0 5498:1.0 5499:1.0 5500:1.0 5501:1.0 5502:1.0 5503:1.0 
1.0 6:1.0 55:1.0 56:1.0 57:1.0 58:1.0 2826:1.0 2827:1.0 3478:1.0 3479:1.0 3480:1.0 3481:1.0 3482:1.0 3483:1.0 3484:1.0 3485:1.0 3486:1.0 4475:1.0 5504:1.0 5505:1.0 5506:1.0 
1.0 6:1.0 127:1.0 165:1.0 166:1.0 167:1.0 168:1.0 169:1.0 1094:1.0 2980:1.0 3723:1.0 3896:1.0 5507:1.0 5508:1.0 5509:1.0 5510:1.0 5511:1.0 
1.0 127:1.0 164:1.0 165:1.0 166:1.0 167:1.0 168:1.0 169:1.0 532:1.0 1610:1.0 2688:1.0 5512:1.0 5513:1.0 5514:1.0 5515:1.0 5516:1.0 5517:1.0 5518:1.0 5519:1.0 
1.0 40:1.0 164:1.0 165:1.0 166:1.0 167:1.0 168:1.0 169:1.0 532:1.0 1610:1.0 2688:1.0 5512:1.0 5513:1.0 5514:1.0 5515:1.0 5516:1.0 5517:1.0 5518:1.0 5519:1.0 
0.42451935400249896 26:1.0 40:1.0 1963:1.0 2826:1.0 2827:1.0 3740:1.0 3741:1.0 5520:1.0 5521:1.0 5522:1.0 5523:1.0 5524:1.0 5525:1.0 5526:1.0 5527:1.0 5528:1.0 5529:1.0 5530:1.0 5531:2.0 5532:2.0 5533:2.0 5534:2.0 5535:2.0 5536:1.0 5537:1.0 
1.0 6:1.0 156:1.0 225:1.0 338:1.0 583:2.0 895:1.0 1485:1.0 2357:1.0 2358:1.0 2359:1.0 2360:1.0 2361:1.0 2362:1.0 2826:1.0 2827:1.0 5538:1.0 5539:1.0 5540:1.0 5541:1.0 5542:1.0 5543:1.0 5544:1.0 5545:1.0 
1.0 6:1.0 40:1.0 2826:2.0 2827:2.0 5506:2.0 5553:1.0 5554:1.0 5555:1.0 5556:1.0 5557:1.0 5558:1.0 5559:1.0 5560:1.0 
1.0 164:1.0 165:1.0 166:1.0 167:1.0 168:1.0 169:1.0 2688:1.0 3081:1.0 3775:1.0 5571:1.0 5572:1.0 5573:1.0 5574:1.0 5575:1.0 
1.0 26:1.0 40:1.0 142:1.0 143:1.0 144:1.0 583:1.0 641:1.0 1107:1.0 1629:1.0 1836:1.0 2200:1.0 2355:1.0 5576:1.0 5577:1.0 5578:1.0 
1.0 6:1.0 978:1.0 979:1.0 980:1.0 981:1.0 2216:1.0 2826:1.0 2827:1.0 5614:1.0 5615:1.0 5616:1.0 
1.0 26:1.0 215:1.0 216:1.0 217:1.0 218:1.0 570:1.0 1213:1.0 1214:1.0 1215:1.0 1216:1.0 1217:1.0 1218:1.0 1219:1.0 1220:1.0 
1.0 6:1.0 40:1.0 478:1.0 1618:1.0 1779:1.0 2108:1.0 2109:1.0 2143:1.0 4134:1.0 4135:1.0 4136:1.0 5627:1.0 5628:1.0 5629:1.0 5630:1.0 5631:1.0 5632:1.0 
1.0 6:1.0 98:1.0 99:1.0 127:1.0 166:1.0 167:1.0 168:1.0 169:1.0 873:1.0 874:1.0 2108:1.0 2224:1.0 2225:1.0 5633:1.0 5634:1.0 5635:1.0 5636:1.0 5637:1.0 5638:1.0 5639:1.0 5640:1.0 5641:1.0 5642:1.0 
1.0 26:1.0 40:1.0 2539:1.0 2540:1.0 4592:1.0 5659:1.0 5660:1.0 5661:1.0 5662:1.0 5663:1.0 5664:1.0 5665:1.0 5666:1.0 5667:1.0 
1.0 6:1.0 161:1.0 162:1.0 166:1.0 167:1.0 168:1.0 169:1.0 209:1.0 2108:1.0 2115:1.0 2125:1.0 2126:1.0 2127:1.0 2128:1.0 2129:1.0 2130:1.0 2131:1.0 2132:1.0 2224:1.0 2225:1.0 2692:1.0 5668:1.0 5669:1.0 5670:1.0 5671:1.0 5672:1.0 5673:1.0 
1.0 26:1.0 378:1.0 2211:1.0 2212:1.0 2213:1.0 2214:1.0 2215:1.0 2216:1.0 5694:1.0 5695:1.0 5696:1.0 5697:1.0 
1.0 6:1.0 34:1.0 45:1.0 46:1.0 165:1.0 166:2.0 167:3.0 168:2.0 169:2.0 221:1.0 222:1.0 2695:1.0 2696:1.0 2697:1.0 2698:1.0 3551:1.0 5698:1.0 
1.0 40:1.0 166:1.0 167:1.0 168:1.0 169:1.0 698:1.0 699:1.0 798:1.0 970:1.0 1264:1.0 1265:1.0 1266:1.0 1267:1.0 1268:1.0 2108:1.0 2224:1.0 2225:1.0 2666:1.0 2672:1.0 4370:1.0 4371:1.0 4372:1.0 5642:1.0 5715:1.0 5716:1.0 5717:1.0 5718:1.0 5719:1.0 5720:1.0 5721:1.0 5722:1.0 5723:1.0 5724:1.0 5725:1.0 5726:1.0 5727:1.0 5728:1.0 5729:1.0 5730:1.0 5731:1.0 5732:1.0 5733:1.0 
1.0 89:1.0 165:1.0 166:1.0 167:1.0 168:1.0 169:1.0 829:1.0 2212:1.0 2213:1.0 2214:1.0 2215:1.0 2216:1.0 5681:1.0 5776:1.0 5777:1.0 5778:1.0 5779:1.0 5780:1.0 5781:1.0 5782:1.0 5783:1.0 5784:1.0 5785:1.0 5786:1.0 5787:1.0 
1.0 89:1.0 166:1.0 167:1.0 168:1.0 169:1.0 749:1.0 750:1.0 751:1.0 5789:1.0 5790:1.0 5791:1.0 5792:1.0 5793:1.0 5794:1.0 5795:1.0 5796:1.0 5797:1.0 5798:1.0 5799:1.0 
1.0 40:1.0 89:1.0 142:1.0 143:1.0 144:1.0 2560:1.0 2561:1.0 2562:1.0 3159:1.0 5800:1.0 5801:1.0 5802:1.0 5803:1.0 5804:1.0 
0.4693650559539465 40:1.0 89:1.0 756:1.0 843:1.0 844:1.0 2126:1.0 2127:1.0 2128:1.0 2129:1.0 2479:1.0 2480:1.0 2481:1.0 2482:1.0 2483:1.0 2484:1.0 2485:1.0 2486:1.0 2487:1.0 5805:1.0 5806:1.0 5807:1.0 5808:1.0 5809:1.0 5810:1.0 5811:1.0 5812:1.0 
1.0 40:1.0 89:1.0 167:1.0 221:1.0 222:1.0 333:1.0 1996:1.0 2086:1.0 2087:1.0 2539:1.0 2540:1.0 3504:1.0 4000:1.0 5489:1.0 5490:1.0 5826:1.0 5827:1.0 5828:1.0 5829:1.0 5830:1.0 5831:1.0 5832:1.0 5833:1.0 5834:1.0 5835:1.0 
1.0 40:1.0 89:1.0 333:1.0 373:1.0 2086:1.0 2087:1.0 3931:2.0 3932:2.0 3933:2.0 4000:1.0 5489:1.0 5490:1.0 5826:1.0 5836:1.0 5837:1.0 5838:1.0 5839:1.0 5840:1.0 5841:1.0 5842:1.0 5843:1.0 5844:1.0 5845:1.0 
1.0 26:1.0 127:1.0 141:1.0 167:1.0 1822:1.0 1823:1.0 4817:1.0 5440:1.0 5871:1.0 5872:1.0 5873:1.0 5874:1.0 5875:1.0 5876:1.0 5877:1.0 5878:1.0 5879:1.0 5880:1.0 5881:1.0 5882:1.0 
1.0 40:1.0 59:1.0 89:1.0 133:1.0 220:1.0 1121:1.0 1555:1.0 1556:1.0 1786:1.0 2078:1.0 2079:1.0 2080:1.0 2081:1.0 2082:1.0 2083:1.0 2084:1.0 2753:1.0 2999:1.0 3000:1.0 3001:1.0 5886:1.0 5887:1.0 5888:1.0 5889:1.0 5890:1.0 5891:1.0 5892:1.0 5893:1.0 5894:1.0 5895:1.0 5896:1.0 
1.0 40:1.0 89:1.0 756:1.0 844:1.0 1841:1.0 2126:1.0 2127:1.0 2128:1.0 2129:1.0 2479:1.0 2480:1.0 2481:1.0 2482:1.0 2483:1.0 2484:1.0 2485:1.0 2486:1.0 2487:1.0 2791:1.0 5805:1.0 5808:1.0 5809:1.0 5810:1.0 5811:1.0 5812:1.0 5926:1.0 5927:1.0 5928:1.0 5929:1.0 5930:1.0 5931:1.0 
1.0 40:1.0 89:1.0 133:1.0 765:1.0 985:1.0 1243:1.0 1244:1.0 1245:1.0 1246:1.0 3195:1.0 4931:1.0 5949:1.0 5950:1.0 5951:1.0 5952:1.0 5953:1.0 5954:1.0 5955:1.0 5956:1.0 5957:1.0 5958:1.0 5959:1.0 5960:1.0 5961:1.0 5962:1.0 5963:1.0 5964:1.0 5965:1.0 5966:1.0 5967:1.0 
1.0 89:1.0 127:1.0 183:1.0 1280:1.0 1895:1.0 2067:1.0 2329:1.0 2740:1.0 3156:1.0 4648:1.0 4649:1.0 4650:1.0 4651:1.0 4652:1.0 5968:1.0 5969:1.0 5970:1.0 5971:1.0 5972:1.0 5973:1.0 5974:1.0 
1.0 26:1.0 488:1.0 489:1.0 490:2.0 491:1.0 492:1.0 493:1.0 494:1.0 495:1.0 5962:1.0 6005:1.0 6006:1.0 6007:1.0 6008:1.0 
1.0 26:1.0 165:1.0 166:1.0 167:1.0 168:1.0 169:1.0 488:1.0 489:1.0 490:2.0 491:1.0 492:1.0 493:1.0 494:1.0 495:1.0 2452:1.0 2539:1.0 2540:1.0 5666:1.0 5667:1.0 
1.0 89:1.0 127:1.0 1841:1.0 2108:1.0 2224:1.0 2225:1.0 2791:1.0 5642:1.0 5763:1.0 5764:1.0 5931:1.0 6035:1.0 
1.0 26:1.0 488:1.0 489:1.0 490:2.0 491:1.0 492:1.0 493:1.0 494:1.0 495:1.0 5766:1.0 6036:1.0 6037:1.0 
0.19129051850091083 40:1.0 297:1.0 378:1.0 478:1.0 1280:1.0 1537:1.0 1618:1.0 1740:1.0 1791:1.0 1926:1.0 1927:1.0 1928:1.0 1929:1.0 3974:1.0 6038:1.0 6039:1.0 6040:1.0 6041:1.0 6042:1.0 6043:1.0 6044:1.0 6045:1.0 6046:1.0 6047:1.0 
1.0 40:1.0 168:1.0 169:1.0 641:1.0 749:1.0 750:1.0 751:1.0 1209:1.0 1710:1.0 1711:1.0 1712:1.0 1713:1.0 1714:1.0 1860:1.0 1933:1.0 1934:1.0 2092:1.0 2093:1.0 2094:1.0 2095:1.0 2126:1.0 2127:1.0 2128:1.0 2129:1.0 2142:1.0 2732:1.0 2742:1.0 2743:1.0 2744:1.0 3120:1.0 3279:2.0 3525:1.0 3653:2.0 5711:1.0 6084:1.0 6085:1.0 6086:1.0 6087:1.0 6088:1.0 6089:1.0 6090:1.0 6091:1.0 6092:1.0 6093:1.0 6094:1.0 6095:1.0 6096:1.0 6097:1.0 6098:1.0 6099:1.0 6100:1.0 6101:1.0 6102:1.0 6103:1.0 6104:1.0 6105:1.0 6106:1.0 6107:1.0 6108:1.0 
1.0 26:1.0 215:1.0 216:1.0 217:1.0 218:1.0 570:1.0 583:1.0 1213:1.0 1214:1.0 1215:1.0 1216:1.0 1217:1.0 1218:1.0 1219:1.0 1220:1.0 4113:1.0 6109:1.0 6110:1.0 6111:1.0 6112:1.0 6113:1.0 6114:1.0 6115:1.0 6116:1.0 6117:1.0 6118:1.0 6119:1.0 6120:1.0 6121:1.0 6122:1.0 6123:1.0 6124:1.0 6125:1.0 6126:1.0 6127:1.0 
1.0 6:1.0 1219:1.0 1220:1.0 3032:1.0 3338:1.0 6137:1.0 6138:1.0 6139:1.0 6140:1.0 6141:1.0 6142:1.0 6143:1.0 6144:1.0 6145:1.0 6146:1.0 
1.0 6:1.0 1219:1.0 1220:1.0 3032:1.0 3338:1.0 6137:1.0 6138:1.0 6139:1.0 6140:1.0 6141:1.0 6142:1.0 6143:1.0 6144:1.0 6145:1.0 6146:1.0 
1.0 26:1.0 127:1.0 134:1.0 1995:1.0 2184:1.0 2740:1.0 2809:1.0 3708:1.0 3709:1.0 3710:1.0 3724:1.0 3725:1.0 4113:1.0 4968:1.0 6111:1.0 6112:1.0 6113:1.0 6114:1.0 6132:1.0 6133:1.0 6134:1.0 6135:1.0 6147:1.0 6148:1.0 6149:1.0 6150:1.0 6151:1.0 6152:1.0 6153:1.0 
1.0 6:1.0 40:1.0 166:1.0 2860:1.0 6154:1.0 6155:1.0 6156:1.0 6157:1.0 6158:1.0 6159:1.0 6160:1.0 6161:1.0 6162:1.0 
1.0 89:1.0 127:1.0 2108:1.0 2224:1.0 2225:1.0 5642:1.0 5763:1.0 5764:1.0 6109:1.0 6111:1.0 6163:1.0 6164:1.0 6165:1.0 6166:1.0 
1.0 127:1.0 1740:1.0 3329:1.0 6179:1.0 6180:1.0 6181:1.0 6182:1.0 6183:1.0 6184:1.0 6185:1.0 
1.0 6:1.0 166:1.0 167:1.0 168:1.0 169:1.0 373:2.0 1230:1.0 2176:2.0 2177:2.0 3352:1.0 3353:1.0 3354:1.0 3355:1.0 3789:1.0 3790:1.0 4346:1.0 4354:1.0 4355:1.0 4356:1.0 4357:1.0 4358:1.0 4967:1.0 5637:1.0 6186:1.0 6187:1.0 6188:1.0 6189:1.0 6190:1.0 6191:1.0 6192:1.0 6193:1.0 6194:1.0 6195:1.0 6196:1.0 6197:1.0 6198:1.0 6199:1.0 6200:1.0 6201:1.0 6202:1.0 6203:1.0 6204:1.0 6205:1.0 6206:1.0 6207:1.0 6208:1.0 6209:1.0 6210:1.0 6211:1.0 6212:1.0 6213:1.0 6214:1.0 6215:1.0 6216:1.0 6217:1.0 6218:1.0 
1.0 6:1.0 40:1.0 525:1.0 526:1.0 1561:1.0 2351:1.0 2352:1.0 2353:1.0 6234:1.0 6235:1.0 6236:1.0 6237:1.0 6238:1.0 
1.0 6:1.0 40:2.0 133:1.0 2049:1.0 2050:1.0 2352:1.0 2353:1.0 2388:1.0 2389:1.0 2390:1.0 2391:1.0 4011:1.0 6257:1.0 6258:1.0 6259:1.0 6260:1.0 6261:1.0 6262:1.0 6263:1.0 6264:1.0 6265:1.0 6266:1.0 6267:1.0 6268:1.0 6269:1.0 6270:1.0 6271:1.0 6272:1.0 
1.0 40:1.0 140:1.0 583:1.0 797:1.0 798:1.0 2126:1.0 2127:1.0 2128:1.0 2129:1.0 2352:1.0 2353:1.0 2357:1.0 2358:1.0 2359:1.0 2374:1.0 2667:1.0 3370:1.0 6254:1.0 6255:1.0 6256:1.0 
1.0 26:1.0 45:1.0 46:1.0 6251:1.0 6274:1.0 6275:1.0 6276:1.0 6277:1.0 6278:1.0 6279:1.0 6280:1.0 6281:1.0 6282:1.0 
1.0 6:1.0 127:1.0 166:1.0 167:1.0 168:1.0 169:1.0 2126:1.0 2127:1.0 2128:1.0 2129:1.0 2351:1.0 2352:1.0 2353:1.0 3925:1.0 4253:1.0 5805:1.0 6048:1.0 6049:1.0 6050:1.0 
1.0 89:1.0 127:1.0 183:1.0 1280:1.0 2067:1.0 2329:1.0 4648:1.0 4649:1.0 4650:1.0 4651:1.0 4652:1.0 5968:1.0 6290:1.0 6291:1.0 6292:1.0 
1.0 26:1.0 2343:1.0 2344:1.0 2345:1.0 2346:1.0 2347:1.0 2348:1.0 2349:1.0 2350:1.0 2351:1.0 2352:1.0 2353:1.0 
1.0 40:1.0 59:1.0 89:1.0 133:1.0 749:1.0 750:1.0 751:1.0 1121:1.0 1860:1.0 2078:1.0 2079:1.0 2080:1.0 2081:1.0 2082:1.0 2083:1.0 2084:1.0 2108:1.0 2109:1.0 2128:1.0 2999:1.0 3000:1.0 3001:1.0 4475:1.0 5626:1.0 5862:1.0 5863:1.0 5887:1.0 6295:1.0 6296:1.0 6297:1.0 6298:1.0 6299:1.0 6300:1.0 
1.0 6:1.0 127:1.0 2351:2.0 2352:2.0 2353:2.0 6307:1.0 6308:1.0 6309:1.0 6310:1.0 6311:1.0 6312:1.0 
1.0 127:1.0 168:1.0 279:1.0 296:1.0 414:1.0 970:1.0 1134:1.0 1135:1.0 1537:1.0 1791:1.0 2264:1.0 2352:1.0 2353:1.0 2740:1.0 2807:1.0 2808:1.0 2809:1.0 3156:1.0 6317:1.0 6318:1.0 6319:1.0 6320:1.0 6321:1.0 6322:1.0 6323:1.0 6324:1.0 6325:1.0 6326:1.0 6327:1.0 6328:1.0 6329:1.0 6330:1.0 
1.0 6:1.0 40:1.0 156:1.0 225:2.0 337:1.0 338:1.0 643:1.0 644:1.0 645:1.0 646:1.0 824:1.0 1521:1.0 2798:1.0 2799:1.0 2800:1.0 2801:1.0 2802:1.0 2803:1.0 2804:1.0 3396:1.0 4011:1.0 6267:1.0 6331:1.0 6332:1.0 6333:1.0 6334:1.0 6335:1.0 6336:1.0 6337:1.0 
1.0 26:1.0 1104:1.0 1365:1.0 2352:1.0 2353:1.0 2549:1.0 2848:1.0 4659:1.0 6349:1.0 6350:1.0 6351:1.0 
1.0 26:1.0 6352:1.0 6353:1.0 6354:1.0 6355:1.0 
1.0 40:1.0 89:1.0 166:1.0 167:1.0 168:1.0 169:1.0 749:1.0 750:1.0 751:1.0 2351:1.0 2352:1.0 2353:1.0 3335:2.0 5789:1.0 5790:1.0 5791:1.0 5792:1.0 5793:1.0 5794:1.0 5795:1.0 6358:2.0 6359:2.0 6360:2.0 6361:2.0 6362:2.0 6363:2.0 
1.0 89:1.0 166:1.0 167:1.0 168:1.0 169:1.0 749:1.0 750:1.0 751:1.0 2351:1.0 2352:1.0 2353:1.0 5789:1.0 5790:1.0 5791:1.0 5792:1.0 5793:1.0 5794:1.0 5795:1.0 
1.0 64:1.0 65:1.0 797:1.0 798:1.0 2352:1.0 2353:1.0 6364:1.0 6365:1.0 6366:1.0 6367:1.0 
1.0 414:1.0 829:1.0 2033:1.0 3403:1.0 4809:1.0 6372:1.0 6373:1.0 6374:1.0 6375:1.0 6376:1.0 6377:1.0 6378:1.0 6379:1.0 
1.0 182:1.0 183:1.0 184:1.0 231:1.0 797:1.0 798:1.0 4082:1.0 5095:1.0 6400:1.0 6401:1.0 6402:1.0 6403:1.0 6404:1.0 6405:1.0 
1.0 6:1.0 40:1.0 378:1.0 836:1.0 1369:1.0 1549:1.0 1953:1.0 1956:1.0 2075:1.0 2076:1.0 2077:1.0 3524:1.0 3525:1.0 4795:1.0 4812:1.0 6444:1.0 6445:1.0 6446:1.0 6447:1.0 6448:1.0 6449:1.0 6450:1.0 6451:1.0 6452:1.0 6453:1.0 6454:1.0 6455:1.0 
1.0 26:1.0 40:1.0 199:1.0 222:1.0 1787:1.0 2518:1.0 2519:1.0 3510:1.0 3746:1.0 4927:1.0 5998:1.0 6472:1.0 6473:1.0 6474:1.0 6475:1.0 6476:1.0 6477:1.0 6478:1.0 6479:1.0 6480:1.0 6481:1.0 6482:1.0 6483:1.0 6484:1.0 6485:1.0 6486:1.0 
1.0 40:1.0 107:1.0 165:1.0 166:1.0 167:1.0 168:1.0 169:1.0 2100:1.0 2126:1.0 2127:1.0 2128:1.0 2129:1.0 2351:1.0 2352:1.0 2353:1.0 2584:1.0 4887:1.0 5771:1.0 5772:1.0 5773:1.0 5805:1.0 6070:1.0 6504:1.0 6505:1.0 6506:1.0 6507:1.0 6508:1.0 6509:1.0 
1.0 6:1.0 1219:1.0 1220:1.0 3032:1.0 3338:1.0 6137:1.0 6138:1.0 6139:1.0 6140:1.0 6141:1.0 6142:1.0 6143:1.0 6144:1.0 6145:1.0 6146:1.0 
1.0 6:1.0 1219:1.0 1220:1.0 3032:1.0 3338:1.0 6137:1.0 6138:1.0 6139:1.0 6140:1.0 6141:1.0 6142:1.0 6143:1.0 6144:1.0 6145:1.0 6146:1.0 
1.0 6:1.0 1219:1.0 1220:1.0 3032:1.0 3338:1.0 6137:1.0 6138:1.0 6139:1.0 6140:1.0 6141:1.0 6142:1.0 6143:1.0 6144:1.0 6145:1.0 6146:1.0 
1.0 6:1.0 1219:1.0 1220:1.0 3032:1.0 3338:1.0 6137:1.0 6138:1.0 6139:1.0 6140:1.0 6141:1.0 6142:1.0 6143:1.0 6144:1.0 6145:1.0 6146:1.0 
1.0 6:1.0 1219:1.0 1220:1.0 3032:1.0 3338:1.0 6137:1.0 6138:1.0 6139:1.0 6140:1.0 6141:1.0 6142:1.0 6143:1.0 6144:1.0 6145:1.0 6146:1.0 
1.0 40:1.0 89:1.0 123:1.0 124:1.0 125:1.0 126:1.0 482:1.0 708:1.0 709:1.0 2351:1.0 2352:1.0 2353:1.0 5096:1.0 6517:1.0 6518:1.0 6519:1.0 6520:1.0 6521:1.0 6522:1.0 6523:1.0 6524:1.0 
1.0 89:1.0 127:1.0 1328:1.0 1569:1.0 2351:1.0 2352:1.0 2353:1.0 2908:1.0 4401:1.0 5752:1.0 5753:1.0 5754:1.0 5755:1.0 5756:1.0 5757:1.0 
1.0 6:1.0 40:1.0 165:1.0 166:1.0 167:1.0 168:1.0 169:1.0 1025:1.0 3120:1.0 5365:1.0 6525:1.0 6526:1.0 6527:1.0 6528:1.0 6529:1.0 6530:1.0 6531:1.0 6532:1.0 6533:1.0 6534:1.0 6535:1.0 6536:1.0 6537:1.0 6538:1.0 6539:1.0 6540:1.0 6541:1.0 6542:1.0 
1.0 127:1.0 155:1.0 156:1.0 296:1.0 414:1.0 1891:2.0 1892:2.0 1893:1.0 2352:1.0 2353:1.0 3504:2.0 5835:2.0 6325:1.0 6326:1.0 6327:1.0 6328:1.0 6543:1.0 6544:2.0 6545:1.0 6546:1.0 
1.0 26:1.0 127:1.0 215:1.0 216:1.0 217:1.0 218:1.0 570:1.0 1213:1.0 1214:1.0 1215:1.0 1216:1.0 1217:1.0 1218:1.0 1219:1.0 1220:1.0 2351:1.0 2352:1.0 2353:1.0 
1.0 6:1.0 27:1.0 28:1.0 29:1.0 30:1.0 31:1.0 32:1.0 33:1.0 40:1.0 275:1.0 1740:1.0 2721:1.0 6547:1.0 6548:1.0 6549:1.0 6550:1.0 
1.0 40:1.0 89:1.0 165:1.0 166:2.0 167:2.0 168:2.0 169:2.0 583:1.0 641:1.0 749:1.0 750:1.0 751:1.0 1107:1.0 1836:1.0 2351:1.0 2352:1.0 2353:1.0 2355:1.0 5578:1.0 5789:1.0 5790:1.0 5791:1.0 5792:1.0 5793:1.0 5794:1.0 5795:1.0 
1.0 6:1.0 586:1.0 873:1.0 874:1.0 1338:1.0 1919:1.0 2169:1.0 2170:1.0 2171:1.0 6552:1.0 6553:1.0 6554:1.0 6555:1.0 6556:1.0 6557:1.0 6558:1.0 6559:1.0 6560:1.0 6561:1.0 6562:1.0 
1.0 6:1.0 40:1.0 64:1.0 2352:1.0 2353:1.0 4271:1.0 4628:1.0 4856:1.0 6367:1.0 6568:1.0 6569:1.0 6570:1.0 6571:1.0 
1.0 89:1.0 127:1.0 215:1.0 216:1.0 217:1.0 218:1.0 570:1.0 978:1.0 3910:1.0 3911:1.0 3912:1.0 6594:1.0 6595:1.0 6596:1.0 6597:1.0 6598:1.0 6599:1.0 6600:1.0 6601:1.0 6602:1.0 6603:1.0 6604:1.0 6605:1.0 6606:1.0 6607:1.0 6608:1.0 
1.0 6:1.0 140:1.0 600:1.0 2126:1.0 2127:1.0 2128:1.0 2129:1.0 2352:1.0 2353:1.0 3033:1.0 5345:1.0 6255:1.0 6256:1.0 6623:1.0 6624:1.0 6625:1.0 6626:1.0 6627:1.0 
1.0 40:1.0 156:2.0 338:1.0 983:1.0 1677:2.0 1678:2.0 1682:1.0 1710:1.0 1711:1.0 1712:1.0 1713:1.0 1740:1.0 2113:1.0 2114:1.0 2351:1.0 2352:2.0 2353:2.0 4411:1.0 6628:1.0 6629:1.0 6630:1.0 6631:1.0 6632:1.0 6633:1.0 6634:1.0 6635:1.0 6636:1.0 6637:1.0 6638:1.0 
1.0 6:1.0 40:1.0 583:1.0 641:1.0 1107:1.0 1836:1.0 2126:1.0 2127:1.0 2128:1.0 2129:1.0 2355:1.0 5578:1.0 5805:1.0 6662:1.0 6663:1.0 6664:1.0 6665:1.0 6666:1.0 6667:1.0 6668:1.0 6669:1.0 
1.0 26:1.0 40:1.0 378:1.0 641:1.0 1173:1.0 6670:1.0 6671:1.0 6672:1.0 6673:1.0 6674:1.0 6675:1.0 6676:1.0 6677:1.0 
1.0 6:1.0 166:1.0 167:1.0 168:1.0 169:1.0 1735:1.0 2014:1.0 2015:1.0 6661:1.0 6678:1.0 6679:1.0 
1.0 89:1.0 127:1.0 165:1.0 166:1.0 167:1.0 168:1.0 169:1.0 2229:1.0 5763:1.0 5764:1.0 
1.0 6:1.0 5359:1.0 6680:1.0 6681:1.0 6682:1.0 6683:1.0 6684:1.0 6685:1.0 6686:1.0 
1.0 6:1.0 161:1.0 162:1.0 166:1.0 167:1.0 168:1.0 169:1.0 209:1.0 2115:1.0 2125:1.0 2126:1.0 2127:1.0 2128:1.0 2129:1.0 2130:1.0 2131:1.0 2132:1.0 2229:1.0 
1.0 6:1.0 1219:1.0 1220:1.0 3032:1.0 3338:1.0 6137:1.0 6138:1.0 6139:1.0 6140:1.0 6141:1.0 6142:1.0 6143:1.0 6144:1.0 6145:1.0 6146:1.0 
1.0 6:1.0 1219:1.0 1220:1.0 3032:1.0 3338:1.0 6137:1.0 6138:1.0 6139:1.0 6140:1.0 6141:1.0 6142:1.0 6143:1.0 6144:1.0 6145:1.0 6146:1.0 
1.0 6:1.0 1219:1.0 1220:1.0 3032:1.0 3338:1.0 6137:1.0 6138:1.0 6139:1.0 6140:1.0 6141:1.0 6142:1.0 6143:1.0 6144:1.0 6145:1.0 6146:1.0 
1.0 40:1.0 250:1.0 981:1.0 1895:1.0 2181:1.0 2740:1.0 3156:1.0 3713:1.0 5618:1.0 5619:1.0 5620:1.0 6026:1.0 6504:1.0 6661:1.0 6679:1.0 6767:1.0 6793:1.0 6794:1.0 6795:1.0 6796:1.0 6797:1.0 6798:1.0 
1.0 40:1.0 250:1.0 981:1.0 1895:1.0 2181:1.0 2740:1.0 3156:1.0 3713:1.0 4897:1.0 5618:1.0 5619:1.0 5620:1.0 6026:1.0 6504:1.0 6661:1.0 6679:1.0 6767:1.0 6793:1.0 6794:1.0 6795:1.0 6796:1.0 6797:1.0 6798:1.0 
1.0 6:1.0 168:1.0 2229:1.0 6799:1.0 6800:1.0 6801:1.0 6802:1.0 6803:1.0 
1.0 6:1.0 127:1.0 2471:1.0 2472:1.0 2792:1.0 5760:1.0 5761:1.0 5762:1.0 
0.4999057774017488 40:1.0 297:1.0 890:1.0 1160:1.0 1740:1.0 3973:1.0 4125:1.0 6043:1.0 6044:1.0 6159:1.0 6809:1.0 6810:1.0 6811:1.0 6812:1.0 6813:1.0 6814:1.0 6815:1.0 6816:1.0 6817:1.0 6818:1.0 6819:1.0 6820:2.0 6821:2.0 6822:2.0 6823:2.0 6824:2.0 6825:2.0 
1.0 40:1.0 81:1.0 196:1.0 414:1.0 641:1.0 1173:1.0 2968:1.0 5618:1.0 5619:1.0 5620:1.0 6661:1.0 6675:1.0 6676:1.0 6677:1.0 6679:1.0 6847:1.0 6848:1.0 6849:1.0 6850:1.0 6851:1.0 6852:1.0 6853:1.0 6854:1.0 
1.0 40:1.0 83:1.0 89:1.0 189:1.0 190:1.0 191:1.0 192:1.0 193:1.0 297:1.0 333:1.0 2086:1.0 2087:1.0 2204:1.0 2205:1.0 3899:1.0 4000:1.0 4869:1.0 5228:1.0 5489:1.0 5490:1.0 5886:1.0 6043:1.0 6044:1.0 6159:1.0 6819:1.0 6842:1.0 6843:1.0 6844:1.0 6845:1.0 6855:1.0 6856:1.0 6857:1.0 6858:1.0 6859:1.0 6860:1.0 6861:1.0 
1.0 26:1.0 40:1.0 2662:1.0 6661:1.0 6679:1.0 6862:1.0 6863:1.0 6864:1.0 6865:1.0 6866:1.0 6867:1.0 6868:1.0 6869:1.0 6870:1.0 6871:1.0 6872:1.0 6873:1.0 6874:1.0 
1.0 26:1.0 40:1.0 2229:1.0 6862:1.0 6863:1.0 6864:1.0 6866:1.0 6875:1.0 
1.0 26:1.0 127:1.0 6661:1.0 6679:1.0 6842:1.0 6843:1.0 6844:1.0 6845:1.0 6846:1.0 6848:1.0 6849:1.0 6850:1.0 6851:1.0 6876:1.0 6877:1.0 6878:1.0 6879:1.0 6880:1.0 6881:1.0 
0.3625880065146001 26:1.0 127:1.0 538:1.0 1134:1.0 1498:1.0 1499:1.0 6661:1.0 6679:1.0 6842:1.0 6843:1.0 6844:1.0 6845:1.0 6846:1.0 6848:1.0 6849:1.0 6850:1.0 6851:1.0 6876:1.0 6882:1.0 6883:1.0 
1.0 26:1.0 127:1.0 405:1.0 4856:1.0 6661:1.0 6679:1.0 6842:1.0 6843:1.0 6844:1.0 6845:1.0 6846:1.0 6848:1.0 6849:1.0 6850:1.0 6851:1.0 6876:1.0 6906:1.0 6907:1.0 6908:1.0 
1.0 40:1.0 250:1.0 574:1.0 606:1.0 669:1.0 877:1.0 3504:1.0 4509:1.0 4830:1.0 4924:1.0 5021:1.0 5835:1.0 6530:1.0 6768:1.0 6769:1.0 6770:1.0 6771:1.0 6772:1.0 6773:1.0 6774:1.0 6775:1.0 6776:1.0 6777:1.0 6778:1.0 6779:1.0 6780:1.0 6909:1.0 6910:1.0 6911:1.0 
0.10211370038099887 26:1.0 40:1.0 184:1.0 820:1.0 2263:1.0 2646:1.0 2647:1.0 2648:1.0 3173:1.0 3840:1.0 4530:1.0 5757:1.0 6912:1.0 6913:1.0 6914:1.0 6915:1.0 6916:1.0 6917:1.0 6918:1.0 6919:1.0 6920:1.0 6921:1.0 6922:1.0 6923:1.0 6924:1.0 6925:1.0 6926:1.0 6927:1.0 6928:1.0 6929:1.0 6930:1.0 
1.0 165:1.0 166:1.0 167:1.0 168:1.0 169:1.0 796:1.0 797:1.0 798:1.0 2126:1.0 2127:1.0 2128:1.0 2129:1.0 2719:1.0 2720:1.0 2721:1.0 3195:1.0 5805:1.0 6932:1.0 
1.0 40:1.0 156:1.0 338:1.0 344:1.0 345:1.0 346:1.0 347:1.0 348:1.0 1740:1.0 1761:1.0 1762:1.0 2356:1.0 2357:1.0 2358:1.0 2359:1.0 2360:1.0 2361:1.0 2362:1.0 6158:1.0 6947:1.0 6948:1.0 
1.0 6:1.0 127:1.0 2719:1.0 2720:1.0 2721:1.0 3498:1.0 3499:1.0 5462:1.0 6950:1.0 6951:1.0 6952:1.0 6953:1.0 6954:1.0 6955:1.0 6956:1.0 6957:1.0 6958:1.0 6959:1.0 6960:1.0 
1.0 6:1.0 127:1.0 142:1.0 143:1.0 144:1.0 692:1.0 6961:1.0 6962:1.0 6963:1.0 6964:1.0 6965:1.0 6966:1.0 6967:1.0 6968:1.0 6969:1.0 6970:1.0 6971:1.0 
1.0 6:1.0 40:1.0 156:1.0 225:2.0 337:1.0 338:1.0 643:1.0 644:1.0 645:1.0 646:1.0 824:1.0 1521:1.0 2719:1.0 2720:1.0 2721:1.0 2798:1.0 2799:1.0 2800:1.0 2801:1.0 2802:1.0 2803:1.0 2804:1.0 3195:1.0 6932:1.0 
1.0 26:1.0 40:2.0 223:1.0 820:1.0 1193:1.0 1194:1.0 1195:1.0 5460:1.0 6972:1.0 6973:1.0 6974:1.0 6975:1.0 
1.0 26:1.0 127:1.0 6984:1.0 6985:1.0 
1.0 6:1.0 275:1.0 2438:1.0 2439:1.0 2719:1.0 2720:1.0 2721:1.0 6986:1.0 6987:1.0 6988:1.0 6989:1.0 6990:1.0 6991:1.0 6992:1.0 6993:1.0 6994:1.0 
1.0 40:1.0 89:1.0 123:1.0 124:1.0 125:1.0 126:1.0 378:1.0 497:1.0 498:1.0 499:1.0 500:1.0 501:1.0 773:1.0 779:1.0 885:1.0 978:1.0 979:1.0 1939:1.0 1954:1.0 2269:1.0 3898:1.0 6995:1.0 6996:1.0 6997:1.0 6998:1.0 6999:1.0 7000:1.0 7001:1.0 7002:1.0 7003:1.0 7004:1.0 7005:1.0 7006:1.0 7007:1.0 7008:1.0 7009:1.0 7010:1.0 7011:1.0 7012:1.0 7013:1.0 7014:1.0 7015:1.0 
1.0 54:1.0 74:1.0 127:1.0 363:1.0 364:1.0 375:1.0 378:1.0 797:1.0 798:1.0 1953:1.0 2435:1.0 3341:1.0 6330:1.0 7020:1.0 7021:1.0 7022:1.0 7023:1.0 7024:1.0 7025:1.0 7026:1.0 7027:1.0 7028:1.0 7029:1.0 7030:1.0 7031:1.0 7032:1.0 7033:1.0 7034:1.0 7035:1.0 7036:1.0 7037:1.0 
1.0 115:1.0 168:1.0 310:1.0 586:1.0 587:1.0 797:1.0 798:1.0 975:1.0 976:1.0 3320:1.0 3507:1.0 4047:1.0 4707:1.0 4708:1.0 4709:1.0 4710:1.0 4711:1.0 5220:1.0 7039:1.0 7040:1.0 7041:1.0 7042:1.0 
1.0 89:1.0 166:1.0 215:1.0 216:1.0 217:1.0 218:1.0 570:1.0 692:1.0 2435:1.0 5372:1.0 7020:1.0 7021:1.0 7022:1.0 7023:1.0 7065:1.0 7066:1.0 7067:1.0 7068:1.0 7069:1.0 7070:1.0 7071:1.0 7072:1.0 
1.0 26:1.0 40:1.0 222:1.0 2518:1.0 2519:1.0 3370:1.0 4927:1.0 6472:1.0 6473:1.0 6474:1.0 6475:1.0 6476:1.0 7020:1.0 7052:1.0 7085:1.0 7086:1.0 7087:1.0 7088:1.0 
1.0 6:1.0 127:1.0 166:1.0 167:1.0 168:1.0 169:1.0 215:1.0 216:1.0 217:1.0 218:1.0 570:1.0 1802:1.0 2604:1.0 7020:1.0 7021:1.0 7022:1.0 7023:1.0 7106:1.0 7107:1.0 7108:1.0 
1.0 26:1.0 40:1.0 156:1.0 165:1.0 166:1.0 167:1.0 168:1.0 169:1.0 338:1.0 873:1.0 874:1.0 1178:1.0 1601:1.0 1919:1.0 2169:1.0 2170:1.0 2171:1.0 2207:1.0 2208:1.0 2209:1.0 2210:1.0 2538:1.0 3129:1.0 3231:1.0 7109:1.0 7110:1.0 7111:1.0 7112:1.0 7113:1.0 7114:1.0 7115:1.0 7116:1.0 
1.0 6:1.0 161:1.0 162:1.0 166:1.0 167:1.0 168:1.0 169:1.0 209:1.0 2435:1.0 6930:1.0 7020:1.0 7021:1.0 7022:1.0 7023:1.0 7037:1.0 7117:1.0 7118:1.0 7119:1.0 7120:1.0 7121:1.0 7122:1.0 7123:1.0 
1.0 115:1.0 127:1.0 310:1.0 532:2.0 797:1.0 798:1.0 975:1.0 976:1.0 1094:2.0 3507:1.0 3895:2.0 3896:2.0 4047:1.0 4707:1.0 4708:1.0 4709:1.0 4710:1.0 4711:1.0 5220:1.0 7020:1.0 7021:1.0 7022:1.0 7023:1.0 7039:1.0 7071:1.0 7072:1.0 7104:1.0 7105:1.0 7127:1.0 7128:1.0 7129:2.0 7130:2.0 
1.0 26:1.0 127:1.0 467:1.0 468:1.0 469:1.0 470:1.0 970:1.0 1135:1.0 1198:1.0 2435:1.0 2560:1.0 2561:1.0 2562:1.0 3159:1.0 3257:1.0 3258:1.0 3259:1.0 3260:1.0 3848:1.0 5802:1.0 5803:1.0 5804:1.0 7020:1.0 7021:1.0 7022:1.0 7023:1.0 7131:1.0 7132:1.0 7133:1.0 7134:1.0 7135:1.0 7136:1.0 7137:1.0 7138:1.0 7139:1.0 7140:1.0 7141:1.0 7142:1.0 7143:1.0 7144:1.0 
1.0 26:1.0 146:1.0 215:1.0 216:1.0 217:1.0 218:1.0 500:2.0 570:1.0 1094:1.0 1338:1.0 2538:1.0 2738:2.0 2739:2.0 2740:2.0 3129:1.0 7110:1.0 7111:1.0 7112:1.0 7164:1.0 7165:1.0 7166:1.0 7167:1.0 7168:1.0 7169:1.0 7170:1.0 7171:1.0 
1.0 6:1.0 27:1.0 28:1.0 29:1.0 30:1.0 31:1.0 32:1.0 33:1.0 40:1.0 64:1.0 165:1.0 166:1.0 167:1.0 168:1.0 169:1.0 7180:1.0 7191:1.0 
1.0 26:1.0 91:1.0 7192:1.0 7193:1.0 7194:1.0 7195:1.0 
1.0 127:1.0 797:1.0 798:1.0 1841:1.0 2791:1.0 3021:1.0 3811:1.0 4641:1.0 4642:1.0 5931:1.0 7180:1.0 7208:1.0 7209:1.0 7210:1.0 7211:1.0 7212:1.0 7213:1.0 7214:1.0 
1.0 26:1.0 47:1.0 48:1.0 49:1.0 50:1.0 51:1.0 7234:1.0 
1.0 6:1.0 142:1.0 143:1.0 144:1.0 166:1.0 167:1.0 168:1.0 169:1.0 1338:1.0 2897:1.0 5230:1.0 5613:1.0 7235:1.0 7236:1.0 7237:1.0 7238:1.0 7239:1.0 7240:1.0 
1.0 165:1.0 166:1.0 167:1.0 168:1.0 169:1.0 796:1.0 797:1.0 798:1.0 873:1.0 874:1.0 875:1.0 876:1.0 877:1.0 6109:1.0 7251:1.0 7252:1.0 7253:1.0 7254:1.0 
1.0 89:1.0 127:1.0 142:1.0 143:1.0 144:1.0 215:1.0 216:1.0 217:1.0 218:1.0 570:1.0 1577:1.0 2653:1.0 7180:1.0 7279:1.0 7280:1.0 7281:1.0 7282:1.0 7283:1.0 
1.0 26:1.0 40:1.0 215:1.0 216:1.0 217:1.0 218:1.0 570:1.0 749:1.0 750:1.0 751:1.0 1524:1.0 7284:1.0 7285:1.0 7286:1.0 7287:1.0 7288:1.0 7289:1.0 7290:1.0 7291:1.0 7292:1.0 7293:1.0 
1.0 89:1.0 882:1.0 7294:1.0 7295:1.0 7296:1.0 7297:1.0 7298:1.0 
0.7131546367533766 6:1.0 166:1.0 167:1.0 168:1.0 169:1.0 873:1.0 874:1.0 875:1.0 876:1.0 877:1.0 4357:1.0 7306:1.0 7307:1.0 7308:1.0 
1.0 6:1.0 64:1.0 65:1.0 7309:1.0 7310:1.0 7311:1.0 7312:1.0 7313:1.0 
1.0 26:1.0 127:1.0 2560:1.0 2561:1.0 2562:1.0 2656:1.0 3318:1.0 7336:1.0 7337:1.0 7338:1.0 7339:1.0 7340:1.0 7341:1.0 
1.0 26:1.0 40:1.0 47:1.0 48:1.0 49:1.0 50:1.0 51:1.0 1387:1.0 1388:1.0 7321:1.0 7322:1.0 7342:1.0 7343:1.0 7344:1.0 7345:1.0 7346:2.0 7347:1.0 7348:1.0 7349:1.0 7350:1.0 7351:1.0 7352:1.0 7353:1.0 
1.0 26:1.0 127:1.0 885:1.0 1090:1.0 1380:1.0 1381:1.0 1382:1.0 1383:1.0 1384:1.0 2451:1.0 7354:1.0 7355:1.0 7356:1.0 7357:1.0 7358:1.0 7359:1.0 7360:1.0 7361:1.0 7362:1.0 7363:1.0 7364:1.0 
1.0 6:1.0 127:1.0 166:1.0 167:1.0 168:1.0 169:1.0 583:1.0 641:1.0 698:1.0 699:1.0 872:1.0 873:1.0 874:1.0 875:1.0 876:1.0 877:1.0 1107:1.0 1836:1.0 2355:1.0 5578:1.0 7321:1.0 7322:1.0 7371:1.0 7372:1.0 7373:1.0 7374:1.0 7375:1.0 
1.0 127:1.0 165:1.0 166:1.0 167:1.0 168:1.0 169:1.0 5378:1.0 7376:1.0 7377:1.0 7378:1.0 
1.0 26:1.0 127:1.0 2560:1.0 2561:1.0 2562:1.0 2656:1.0 7336:1.0 7337:1.0 7338:1.0 7339:1.0 7340:1.0 7341:1.0 7379:1.0 
1.0 6:1.0 838:1.0 3745:1.0 3811:1.0 3812:1.0 3813:1.0 3901:1.0 3902:1.0 3903:1.0 3904:1.0 7321:1.0 7322:1.0 7375:1.0 7380:1.0 7381:1.0 7382:1.0 7383:1.0 
0.005039320587177598 6:1.0 343:1.0 844:1.0 7321:1.0 7322:1.0 7323:1.0 7324:1.0 7325:1.0 7326:1.0 7327:1.0 7328:1.0 7384:1.0 7385:1.0 7386:1.0 
1.0 6:1.0 40:1.0 142:1.0 143:1.0 144:1.0 250:1.0 885:1.0 1575:1.0 7321:1.0 7322:1.0 7326:1.0 7327:1.0 7328:1.0 7375:1.0 7387:1.0 7388:1.0 
1.0 26:1.0 40:1.0 54:1.0 55:1.0 56:1.0 57:1.0 58:1.0 59:1.0 133:1.0 210:1.0 223:1.0 241:1.0 242:1.0 243:1.0 244:1.0 245:1.0 246:1.0 247:1.0 427:1.0 428:1.0 758:1.0 759:1.0 760:1.0 2560:1.0 2561:1.0 2562:1.0 5804:1.0 7321:1.0 7322:1.0 7323:1.0 7324:1.0 7325:1.0 7326:1.0 7389:1.0 7390:1.0 7391:1.0 7392:1.0 7393:1.0 7394:1.0 7395:1.0 
1.0 40:1.0 89:1.0 165:1.0 166:1.0 167:1.0 168:1.0 169:1.0 583:1.0 641:1.0 1107:1.0 1836:1.0 2355:1.0 4337:1.0 4338:1.0 5365:1.0 5578:1.0 6153:1.0 7180:1.0 7321:1.0 7322:1.0 7353:1.0 7396:1.0 7397:1.0 7398:1.0 7399:1.0 7400:1.0 7401:1.0 
1.0 127:1.0 1740:1.0 2108:1.0 7321:1.0 7322:1.0 7406:1.0 7407:1.0 7408:1.0 7409:1.0 7410:1.0 7411:1.0 7412:1.0 7413:1.0 7414:1.0 
1.0 26:1.0 40:1.0 47:1.0 48:1.0 49:1.0 50:1.0 51:1.0 142:1.0 143:1.0 144:1.0 5774:1.0 7234:1.0 7420:1.0 7421:1.0 
1.0 40:2.0 164:1.0 378:1.0 431:1.0 443:1.0 444:1.0 706:1.0 707:1.0 708:1.0 709:1.0 710:1.0 7422:1.0 7423:2.0 7424:2.0 7425:2.0 7426:1.0 7427:1.0 7428:1.0 7429:1.0 7430:1.0 
1.0 127:1.0 133:1.0 165:1.0 166:1.0 167:1.0 168:1.0 169:1.0 2049:1.0 2050:1.0 6286:1.0 6287:1.0 7290:1.0 7321:2.0 7322:2.0 7323:2.0 7376:1.0 7377:1.0 7431:1.0 7432:1.0 7433:1.0 7434:1.0 7435:1.0 7436:1.0 7437:1.0 7438:1.0 7439:2.0 7440:2.0 7441:2.0 
1.0 6:1.0 40:1.0 142:1.0 143:1.0 144:1.0 405:1.0 1577:1.0 1578:1.0 1579:1.0 1580:1.0 3347:1.0 4463:1.0 4626:1.0 7443:1.0 7444:1.0 7445:1.0 7446:1.0 7447:1.0 7448:1.0 7449:1.0 
1.0 26:1.0 40:1.0 127:1.0 133:1.0 641:1.0 1123:1.0 1933:1.0 1934:1.0 2049:1.0 2050:1.0 3181:1.0 7321:1.0 7322:1.0 7323:1.0 7324:1.0 7325:1.0 7326:1.0 7327:1.0 7328:1.0 7433:1.0 7468:1.0 7469:1.0 7470:1.0 7471:1.0 7472:1.0 7473:1.0 7474:1.0 7475:1.0 7476:1.0 7477:1.0 7478:1.0 
1.0 89:1.0 314:1.0 820:2.0 1141:1.0 2215:1.0 2655:1.0 2656:1.0 2657:1.0 2658:1.0 2659:1.0 3174:1.0 7486:1.0 7487:1.0 7488:1.0 7489:1.0 7490:1.0 7491:1.0 7492:1.0 
1.0 6:1.0 3559:1.0 7515:1.0 7516:1.0 7517:1.0 7518:1.0 7519:1.0 7520:1.0 
1.0 40:1.0 54:1.0 61:1.0 62:1.0 378:1.0 414:1.0 666:1.0 3638:1.0 3643:1.0 7521:1.0 7522:1.0 7523:1.0 7524:1.0 7525:1.0 7526:1.0 7527:1.0 7528:1.0 7529:1.0 7530:1.0 
1.0 127:1.0 414:1.0 1917:1.0 7005:1.0 7531:1.0 7532:1.0 7533:1.0 7534:1.0 7535:1.0 7536:1.0 7537:1.0 7538:1.0 7539:1.0 7540:1.0 7541:1.0 7542:1.0 7543:1.0 7544:1.0 
1.0 6:1.0 54:1.0 61:1.0 62:1.0 940:1.0 1323:1.0 3176:1.0 3638:1.0 3643:1.0 6883:1.0 7529:1.0 7530:1.0 7545:1.0 7546:1.0 7547:1.0 7548:1.0 7549:1.0 7550:1.0 7551:1.0 7552:1.0 7553:1.0 7554:1.0 
0.6567592292736385 26:1.0 858:1.0 1030:1.0 1275:1.0 1338:1.0 1919:1.0 2169:1.0 2170:1.0 2171:1.0 3375:1.0 7555:1.0 7556:1.0 7557:1.0 7558:1.0 7559:1.0 7560:1.0 7561:1.0 7562:1.0 
1.0 6:1.0 127:1.0 1280:1.0 1473:1.0 1607:1.0 2284:1.0 2285:1.0 7573:1.0 7574:1.0 7575:1.0 7576:1.0 7577:1.0 7578:1.0 7579:1.0 7580:1.0 
1.0 40:1.0 89:1.0 583:2.0 1375:1.0 1376:1.0 1377:1.0 1378:1.0 1379:1.0 1380:1.0 1381:1.0 1382:1.0 1383:1.0 1384:1.0 7581:1.0 7582:1.0 7583:1.0 
1.0 6:1.0 40:1.0 306:1.0 3565:1.0 3811:1.0 7005:1.0 7532:1.0 7533:1.0 7537:1.0 7538:1.0 7543:1.0 7544:1.0 7604:1.0 7605:1.0 7606:1.0 7607:1.0 7608:1.0 7609:1.0 7610:1.0 7611:1.0 7612:1.0 7613:1.0 7614:1.0 7615:1.0 7616:1.0 7617:1.0 7618:1.0 7619:1.0 7620:1.0 
1.0 26:1.0 40:1.0 156:1.0 4573:1.0 6723:1.0 6724:1.0 6725:1.0 6726:1.0 6727:1.0 7628:1.0 7629:1.0 
1.0 127:1.0 166:1.0 250:1.0 1248:1.0 1249:1.0 1250:1.0 1898:1.0 2677:1.0 2678:2.0 2679:2.0 5613:1.0 7648:1.0 7649:1.0 7650:1.0 7651:1.0 7652:1.0 7653:1.0 
1.0 26:1.0 156:1.0 195:1.0 196:1.0 197:1.0 198:1.0 199:1.0 4573:1.0 6721:1.0 6722:1.0 6723:1.0 6724:1.0 6725:1.0 6726:1.0 6727:1.0 7658:1.0 7659:1.0 
1.0 6:1.0 40:1.0 134:1.0 156:1.0 165:1.0 166:1.0 167:1.0 168:1.0 169:1.0 195:2.0 196:2.0 197:2.0 198:2.0 199:2.0 1715:2.0 4573:1.0 6723:1.0 6724:1.0 6725:1.0 6726:1.0 6727:1.0 7629:1.0 7660:1.0 7661:1.0 7662:1.0 7663:1.0 
1.0 6:1.0 127:1.0 165:1.0 166:2.0 167:2.0 168:2.0 169:2.0 405:1.0 4856:1.0 5645:1.0 5646:1.0 7664:1.0 7665:1.0 7666:1.0 7667:1.0 7668:1.0 7669:1.0 7670:1.0 7671:1.0 
0.8660780845198001 156:1.0 414:1.0 749:1.0 750:1.0 751:1.0 1427:1.0 1705:1.0 2799:1.0 3424:1.0 4508:1.0 4573:1.0 6155:1.0 6723:1.0 6724:1.0 6725:1.0 6726:1.0 6727:1.0 7672:1.0 7673:1.0 7674:1.0 7675:1.0 7676:1.0 7677:1.0 7678:1.0 7679:1.0 7680:1.0 
1.0 6:1.0 40:1.0 165:1.0 166:1.0 167:1.0 168:1.0 169:1.0 1243:1.0 1244:1.0 3202:1.0 3203:1.0 3919:1.0 4730:1.0 5401:1.0 5402:1.0 5940:1.0 5941:1.0 7681:1.0 7682:1.0 7683:1.0 7684:1.0 7685:1.0 7686:1.0 
1.0 6:1.0 195:1.0 196:1.0 197:1.0 198:1.0 199:1.0 290:1.0 1299:1.0 7687:1.0 7688:1.0 7689:1.0 7690:1.0 7691:1.0 7692:1.0 7693:1.0 7694:1.0 7695:1.0 
1.0 127:1.0 585:1.0 586:1.0 587:1.0 7377:1.0 7641:1.0 7642:1.0 7643:1.0 7644:1.0 7645:1.0 7646:1.0 7647:1.0 
1.0 163:1.0 164:1.0 7684:1.0 7705:1.0 7706:1.0 7707:1.0 
1.0 6:1.0 127:1.0 156:1.0 195:1.0 196:1.0 197:1.0 198:1.0 199:1.0 322:1.0 1085:1.0 3908:1.0 4573:1.0 5190:1.0 5440:1.0 6723:1.0 6724:1.0 6725:1.0 6726:1.0 6727:1.0 7708:1.0 7709:1.0 7710:1.0 7711:1.0 7712:1.0 7713:1.0 7714:1.0 7715:1.0 7716:1.0 7717:1.0 7718:1.0 7719:1.0 
1.0 40:1.0 164:1.0 431:1.0 1709:1.0 1710:1.0 1711:1.0 1712:1.0 1713:1.0 1714:1.0 2096:1.0 2144:1.0 2145:1.0 2146:1.0 2147:1.0 2148:1.0 2149:1.0 
1.0 26:1.0 7720:1.0 
1.0 6:1.0 166:1.0 167:1.0 168:1.0 169:1.0 195:1.0 196:1.0 197:1.0 198:1.0 199:1.0 765:1.0 985:1.0 2012:1.0 2013:1.0 2014:1.0 2015:1.0 4190:1.0 5965:1.0 5966:1.0 7682:1.0 7721:1.0 7722:1.0 7723:1.0 7724:1.0 7725:1.0 
1.0 6:1.0 40:1.0 166:1.0 167:1.0 168:1.0 169:1.0 467:1.0 468:1.0 469:1.0 470:1.0 471:1.0 616:1.0 617:1.0 2388:1.0 2389:1.0 2390:1.0 2391:1.0 6404:1.0 7743:1.0 7744:1.0 7745:1.0 7746:1.0 7747:1.0 7748:1.0 7749:1.0 7750:1.0 7751:1.0 7752:1.0 
1.0 6:1.0 109:2.0 127:1.0 165:1.0 166:1.0 167:1.0 168:2.0 169:1.0 970:1.0 1134:1.0 1135:1.0 2075:1.0 2076:1.0 2264:1.0 2792:1.0 4845:2.0 5090:1.0 7738:2.0 7739:2.0 7759:1.0 7760:1.0 7761:1.0 7762:1.0 7763:2.0 
1.0 6:1.0 127:1.0 156:1.0 2799:1.0 3095:1.0 3096:1.0 3097:1.0 3098:1.0 3099:1.0 3424:1.0 4573:1.0 6723:1.0 6724:1.0 6725:1.0 6726:1.0 6727:1.0 6747:1.0 7677:1.0 7764:1.0 7765:1.0 7766:1.0 7767:1.0 7768:1.0 7769:1.0 7770:1.0 7771:1.0 
1.0 40:1.0 89:1.0 189:1.0 190:1.0 191:1.0 192:1.0 193:1.0 801:1.0 1858:1.0 1859:1.0 2204:1.0 2205:1.0 2560:1.0 2561:1.0 2562:1.0 3159:1.0 5802:1.0 5803:1.0 5804:1.0 6051:1.0 6052:1.0 6053:1.0 6054:1.0 6055:1.0 6056:1.0 7772:1.0 7773:1.0 7774:1.0 7775:1.0 7776:1.0 
1.0 26:1.0 109:1.0 127:1.0 1551:1.0 1552:1.0 1553:1.0 3778:1.0 4845:1.0 6055:1.0 7738:1.0 7739:1.0 7787:1.0 7788:1.0 7789:1.0 7790:1.0 7791:1.0 7792:1.0 
1.0 164:1.0 517:1.0 1094:1.0 2530:1.0 7812:1.0 7813:1.0 7814:1.0 7815:1.0 7816:1.0 7817:1.0 7818:1.0 7819:1.0 7820:1.0 7821:1.0 7822:1.0 
1.0 6:1.0 26:1.0 990:1.0 2100:1.0 2387:1.0 2388:1.0 2389:1.0 2390:1.0 2391:1.0 2392:1.0 2393:1.0 2394:1.0 5451:1.0 7823:1.0 7824:1.0 7825:1.0 7826:1.0 7827:1.0 7828:1.0 7829:1.0 7830:1.0 7831:1.0 7832:1.0 7833:1.0 
1.0 6:1.0 40:1.0 1201:1.0 1202:1.0 1203:1.0 1204:1.0 1205:1.0 5451:1.0 6723:1.0 6724:1.0 7832:1.0 7833:1.0 7845:1.0 7847:1.0 7848:1.0 
1.0 34:1.0 692:1.0 1235:1.0 2020:1.0 2212:1.0 2213:1.0 2214:1.0 2215:1.0 2259:1.0 2260:1.0 2261:1.0 2560:1.0 2561:1.0 2562:1.0 2666:1.0 2896:1.0 3159:1.0 3684:1.0 3685:1.0 3686:1.0 3687:1.0 3817:1.0 4230:1.0 4426:1.0 5104:1.0 5802:1.0 5803:1.0 5804:1.0 7849:1.0 7850:1.0 7851:1.0 7852:1.0 7853:1.0 7854:1.0 7855:1.0 7856:1.0 7857:1.0 7858:1.0 7859:1.0 7860:1.0 
1.0 26:1.0 40:1.0 395:1.0 983:1.0 3012:1.0 3195:1.0 3549:1.0 3550:1.0 3551:1.0 3638:1.0 3643:1.0 3789:1.0 3790:1.0 3862:1.0 3863:1.0 4400:1.0 5050:1.0 5316:1.0 5591:1.0 7622:1.0 7623:1.0 7761:1.0 7762:1.0 7861:1.0 7862:1.0 7863:1.0 7864:1.0 7865:1.0 7866:1.0 7867:1.0 7874:1.0 7875:1.0 7876:1.0 7877:1.0 7878:1.0 7879:1.0 
1.0 6:1.0 643:1.0 644:1.0 824:1.0 1292:1.0 1885:1.0 1886:1.0 1971:1.0 4040:1.0 4041:1.0 7908:1.0 7909:1.0 7910:1.0 7911:1.0 7912:1.0 7913:1.0 7914:1.0 7915:1.0 7916:1.0 7917:1.0 7918:1.0 
1.0 6:1.0 40:1.0 195:1.0 196:1.0 197:1.0 198:1.0 199:1.0 1677:1.0 1678:1.0 1679:1.0 1680:1.0 1681:1.0 1971:1.0 2126:1.0 4040:1.0 4041:1.0 5940:1.0 5941:1.0 7907:1.0 7908:1.0 7909:1.0 7910:1.0 7912:1.0 7919:1.0 7920:1.0 7921:1.0 7922:1.0 7923:1.0 
1.0 6:1.0 127:1.0 161:1.0 162:1.0 166:1.0 167:1.0 168:1.0 169:1.0 209:1.0 1971:2.0 4040:2.0 4041:2.0 5613:1.0 5940:1.0 5941:1.0 7123:1.0 7907:1.0 7908:2.0 7909:2.0 7910:2.0 7912:2.0 7913:1.0 7914:1.0 7915:1.0 7923:1.0 7924:1.0 7925:1.0 7926:1.0 7927:1.0 7928:1.0 
1.0 127:1.0 337:1.0 414:1.0 534:1.0 992:1.0 993:1.0 994:1.0 1743:1.0 1744:1.0 2616:1.0 4527:1.0 4528:1.0 7907:1.0 7908:1.0 7909:1.0 7910:1.0 7929:1.0 7930:1.0 7931:1.0 7932:1.0 7933:1.0 7934:1.0 7935:1.0 7936:1.0 7937:1.0 
1.0 26:1.0 166:1.0 167:1.0 168:1.0 169:1.0 798:1.0 3811:1.0 4641:1.0 4642:1.0 5613:1.0 6761:1.0 7938:1.0 7939:1.0 7940:1.0 
1.0 26:1.0 215:1.0 216:1.0 217:1.0 218:1.0 570:1.0 1213:1.0 1214:1.0 1215:1.0 1216:1.0 1217:1.0 1218:1.0 1219:1.0 1220:1.0 
1.0 6:1.0 98:1.0 2297:1.0 5510:1.0 7972:1.0 7973:1.0 7974:1.0 7975:1.0 7976:1.0 7977:1.0 7978:1.0 7979:1.0 7980:1.0 7981:1.0 7982:1.0 7983:1.0 7984:1.0 7985:1.0 
1.0 26:1.0 156:1.0 166:1.0 167:1.0 168:1.0 169:1.0 337:1.0 338:1.0 1521:1.0 2799:1.0 7766:1.0 7767:1.0 7992:1.0 7993:1.0 7994:1.0 7995:1.0 7996:1.0 
1.0 6:1.0 165:1.0 166:1.0 167:1.0 168:1.0 169:1.0 641:1.0 1635:1.0 1636:1.0 1637:1.0 1638:1.0 1933:1.0 1934:1.0 7997:1.0 7998:1.0 
1.0 26:1.0 127:1.0 134:1.0 494:1.0 838:1.0 5206:1.0 5531:1.0 7381:1.0 7382:1.0 7383:1.0 8001:1.0 8002:1.0 8003:1.0 8004:1.0 8005:1.0 8006:1.0 8007:1.0 8008:1.0 8009:1.0 8010:1.0 
1.0 26:1.0 8016:1.0 
1.0 133:1.0 164:1.0 1162:1.0 1163:1.0 1164:1.0 1165:1.0 1166:1.0 1782:1.0 5413:1.0 5414:1.0 8017:1.0 
1.0 26:1.0 8018:1.0 8019:1.0 8020:1.0 8021:1.0 8022:1.0 
1.0 26:1.0 195:1.0 196:1.0 197:1.0 198:1.0 199:1.0 344:1.0 345:1.0 346:1.0 347:1.0 348:1.0 2013:1.0 8023:1.0 8024:1.0 8025:1.0 
1.0 26:1.0 40:1.0 83:1.0 165:1.0 166:1.0 167:1.0 168:1.0 169:1.0 176:1.0 177:2.0 178:2.0 179:2.0 180:2.0 250:1.0 432:1.0 433:1.0 434:1.0 435:1.0 436:1.0 1221:1.0 1377:1.0 1378:1.0 1580:1.0 1631:1.0 2388:1.0 2389:1.0 2390:1.0 2391:1.0 2954:1.0 2999:1.0 3027:1.0 3908:1.0 4105:1.0 4803:1.0 5257:1.0 5337:1.0 5338:1.0 7943:1.0 8038:1.0 8039:1.0 8040:1.0 8041:1.0 8042:1.0 8043:1.0 8044:1.0 8045:1.0 8046:1.0 8047:1.0 8048:1.0 8049:1.0 8050:1.0 
1.0 6:1.0 127:1.0 980:1.0 981:1.0 4817:1.0 5862:1.0 7662:1.0 8051:1.0 8052:1.0 8053:1.0 8054:1.0 8055:1.0 8056:1.0 8057:1.0 8058:1.0 8059:1.0 8060:1.0 8061:1.0 8062:1.0 8063:1.0 
1.0 6:1.0 127:1.0 166:1.0 167:1.0 168:1.0 169:1.0 189:1.0 190:1.0 191:1.0 192:1.0 193:1.0 985:1.0 986:1.0 987:1.0 988:1.0 989:1.0 990:1.0 1326:1.0 1580:1.0 2954:1.0 2999:1.0 4803:1.0 5337:1.0 5338:1.0 6106:1.0 7671:1.0 7943:1.0 7944:1.0 8000:1.0 8064:1.0 8065:1.0 8066:1.0 8067:1.0 8068:1.0 8069:1.0 8070:1.0 
1.0 6:1.0 165:1.0 166:1.0 167:1.0 168:1.0 169:1.0 
1.0 26:1.0 40:1.0 195:1.0 196:1.0 197:1.0 198:1.0 199:1.0 821:2.0 822:3.0 823:3.0 824:3.0 825:3.0 826:2.0 1619:1.0 3743:1.0 8083:2.0 8084:2.0 8085:2.0 8086:2.0 8087:1.0 8088:1.0 8089:1.0 
1.0 1740:1.0 8090:1.0 8091:1.0 8092:1.0 8093:1.0 8094:1.0 
1.0 6:1.0 54:1.0 55:1.0 56:1.0 57:1.0 58:1.0 59:1.0 155:1.0 156:1.0 310:1.0 981:1.0 982:1.0 983:1.0 2104:1.0 3836:1.0 4492:1.0 5169:1.0 5170:1.0 5171:1.0 5580:1.0 8095:1.0 8096:1.0 8097:1.0 8098:1.0 8099:1.0 8100:1.0 8101:1.0 8102:1.0 
1.0 6:1.0 127:1.0 301:1.0 526:1.0 1605:1.0 1632:1.0 1633:1.0 1634:1.0 1838:1.0 2195:1.0 2302:1.0 5073:1.0 5074:1.0 5075:1.0 5076:1.0 5077:1.0 8121:1.0 8122:1.0 8123:1.0 8124:1.0 8125:1.0 8126:1.0 
1.0 6:1.0 3900:1.0 4013:1.0 4131:1.0 5868:1.0 8127:1.0 8128:1.0 8129:1.0 8130:1.0 8131:1.0 8132:1.0 8133:1.0 8134:1.0 8135:1.0 8136:1.0 8137:1.0 
1.0 89:1.0 188:1.0 189:1.0 190:1.0 191:1.0 192:1.0 193:1.0 1369:1.0 8166:1.0 8167:1.0 8168:1.0 8169:1.0 8170:1.0 8171:1.0 8172:1.0 8173:1.0 
1.0 797:1.0 798:1.0 1214:1.0 1215:1.0 1524:1.0 2130:1.0 2131:1.0 2721:1.0 3269:1.0 3270:1.0 7122:1.0 8174:1.0 8175:1.0 8176:1.0 8177:1.0 8178:1.0 
1.0 40:1.0 89:1.0 188:1.0 189:1.0 190:1.0 191:1.0 192:1.0 193:1.0 1214:1.0 1215:1.0 1369:1.0 2113:1.0 2114:1.0 2721:1.0 3269:1.0 3270:1.0 8166:1.0 8167:1.0 8168:1.0 8169:1.0 8170:1.0 8171:1.0 8172:1.0 8173:1.0 8181:1.0 
1.0 26:1.0 8188:1.0 8189:1.0 8190:1.0 
1.0 26:1.0 2654:1.0 4013:1.0 4130:1.0 8197:1.0 8198:1.0 
1.0 26:1.0 2930:1.0 
1.0 26:1.0 2207:1.0 4131:1.0 8128:1.0 8175:1.0 8176:1.0 8199:1.0 8200:1.0 8201:1.0 8202:1.0 8203:1.0 8204:1.0 8205:1.0 8206:1.0 8207:1.0 
1.0 495:1.0 1338:1.0 1524:1.0 1804:1.0 1805:1.0 1806:1.0 1807:1.0 1808:1.0 4013:1.0 4131:1.0 5230:1.0 5868:1.0 6748:1.0 6749:1.0 6750:1.0 6751:1.0 6752:1.0 7122:1.0 7239:1.0 7240:1.0 8128:1.0 8129:1.0 8130:1.0 8131:1.0 8175:1.0 8176:1.0 8177:1.0 8208:1.0 8209:1.0 8210:1.0 8211:1.0 8212:1.0 8213:1.0 8214:1.0 8215:1.0 8216:1.0 
1.0 26:1.0 4013:1.0 4131:1.0 5868:1.0 8128:1.0 8129:1.0 8130:1.0 8131:1.0 8246:1.0 8247:1.0 8248:1.0 8249:1.0 8250:1.0 8251:1.0 8252:1.0 8253:1.0 8254:1.0 
1.0 26:1.0 28:1.0 1230:1.0 4013:1.0 4131:1.0 5868:1.0 8128:1.0 8129:1.0 8130:1.0 8131:1.0 8132:1.0 8133:1.0 8134:1.0 8279:1.0 8280:1.0 8281:1.0 8282:1.0 8283:1.0 
1.0 54:1.0 89:1.0 127:1.0 165:1.0 166:1.0 167:1.0 168:1.0 169:1.0 411:1.0 532:1.0 692:1.0 4121:1.0 5803:1.0 6969:1.0 8299:1.0 8300:1.0 8301:1.0 8302:1.0 8305:1.0 8306:1.0 8307:1.0 8308:1.0 8309:1.0 8310:1.0 8311:1.0 
1.0 26:1.0 40:1.0 6468:1.0 8312:1.0 8313:1.0 8314:1.0 
1.0 6:1.0 127:1.0 411:1.0 1392:1.0 2108:1.0 2109:1.0 2143:1.0 8298:1.0 8299:1.0 8300:1.0 8301:1.0 8302:1.0 8303:1.0 8304:1.0 8324:1.0 8325:1.0 8326:1.0 8327:1.0 8328:1.0 
1.0 40:1.0 165:1.0 166:1.0 167:1.0 168:1.0 169:1.0 250:1.0 877:1.0 4509:1.0 4924:1.0 5021:1.0 6530:1.0 6768:1.0 6769:1.0 6770:1.0 6771:1.0 6772:1.0 6773:1.0 6774:1.0 6775:1.0 8329:1.0 8330:1.0 8331:1.0 8332:1.0 8333:1.0 
1.0 26:1.0 1098:1.0 3195:1.0 8347:1.0 8348:1.0 8349:1.0 8350:1.0 8351:1.0 
1.0 6:1.0 168:1.0 183:1.0 586:1.0 587:1.0 2439:1.0 3320:1.0 4072:1.0 7041:1.0 7042:1.0 8352:1.0 8353:1.0 8354:1.0 8355:1.0 8356:1.0 
1.0 6:1.0 183:1.0 2439:1.0 2647:1.0 4622:1.0 8353:1.0 8354:1.0 8357:1.0 8358:1.0 8359:1.0 8360:1.0 8361:1.0 
1.0 6:1.0 1462:1.0 3217:1.0 3900:1.0 8362:1.0 8363:1.0 8364:1.0 8365:1.0 8366:1.0 8367:1.0 8368:1.0 8369:1.0 
1.0 6:1.0 586:1.0 587:1.0 3900:1.0 6247:1.0 7509:1.0 8370:1.0 8371:1.0 
1.0 6:1.0 1313:1.0 3900:1.0 4108:1.0 8134:1.0 8135:1.0 8136:1.0 8137:1.0 8404:1.0 8405:1.0 8406:1.0 8407:1.0 8408:1.0 8409:1.0 
1.0 6:1.0 873:1.0 874:1.0 6945:1.0 8175:1.0 8176:1.0 8415:1.0 8416:1.0 8417:1.0 8418:1.0 
1.0 6:1.0 586:1.0 587:1.0 1160:1.0 2952:1.0 3965:1.0 3966:1.0 7312:1.0 8419:1.0 8420:1.0 8421:1.0 8422:1.0 
1.0 6:1.0 182:1.0 183:1.0 184:1.0 517:1.0 1282:1.0 3095:1.0 3096:1.0 3097:1.0 3098:1.0 3099:1.0 7135:1.0 8429:1.0 8430:1.0 8431:1.0 8432:1.0 8433:1.0 8434:1.0 8435:1.0 
1.0 6:1.0 586:1.0 5958:1.0 8436:1.0 8437:1.0 8438:1.0 8439:1.0 8440:1.0 8441:1.0 8442:1.0 
1.0 6:1.0 2168:1.0 2791:1.0 3127:2.0 5320:1.0 8445:1.0 8446:1.0 8447:1.0 8448:1.0 
1.0 6:1.0 123:2.0 124:2.0 125:2.0 126:2.0 373:1.0 1116:1.0 1302:1.0 1303:1.0 1304:1.0 1305:1.0 2176:1.0 2177:1.0 4346:1.0 8449:1.0 8450:1.0 
1.0 6:1.0 124:1.0 125:1.0 126:1.0 127:1.0 140:1.0 1162:1.0 1163:1.0 1164:1.0 1165:1.0 1166:1.0 3335:1.0 3415:1.0 3763:1.0 3764:1.0 8350:1.0 8451:1.0 8452:1.0 8453:1.0 8454:1.0 8455:1.0 8456:1.0 8457:1.0 
1.0 6:1.0 127:1.0 5943:1.0 8464:1.0 8465:1.0 8466:1.0 8467:1.0 8468:1.0 8469:1.0 8470:1.0 8471:1.0 
1.0 6:1.0 8510:1.0 8511:1.0 8512:1.0 8513:1.0 
1.0 26:1.0 8519:1.0 8520:1.0 
1.0 273:1.0 414:1.0 7927:1.0 8525:1.0 8526:1.0 8527:1.0 
1.0 6:1.0 45:1.0 3785:1.0 3786:1.0 8528:1.0 8529:1.0 8530:1.0 
1.0 6:1.0 115:1.0 639:1.0 1727:1.0 2524:1.0 3190:1.0 3310:1.0 3764:1.0 8531:1.0 8532:1.0 8533:1.0 8534:1.0 8535:1.0 
1.0 26:1.0 40:1.0 506:1.0 8542:1.0 8543:1.0 8544:1.0 8545:1.0 8546:1.0 8547:1.0 8548:1.0 8549:1.0 8550:1.0 8551:1.0 8552:1.0 8553:1.0 8554:1.0 8555:1.0 
1.0 6:1.0 1635:1.0 1636:1.0 1637:1.0 1638:1.0 8556:1.0 8557:1.0 8558:1.0 8559:1.0 8560:1.0 8561:1.0 8562:1.0 8563:1.0 8564:1.0 8565:1.0 
1.0 6:1.0 8592:1.0 8593:1.0 8594:1.0 
1.0 414:1.0 2412:1.0 2783:1.0 8632:1.0 8633:1.0 8634:1.0 8635:1.0 8636:1.0 
1.0 1300:1.0 1740:1.0 3176:1.0 8649:1.0 8650:1.0 8651:1.0 8652:1.0 8653:1.0 8654:1.0 
1.0 6:1.0 8655:1.0 8656:1.0 8657:1.0 8658:1.0 8659:1.0 8660:1.0 8661:1.0 8662:1.0 
1.0 6:1.0 6416:1.0 8667:1.0 8668:1.0 8669:1.0 8670:1.0 8671:1.0 8672:1.0 8673:1.0 8674:1.0 
1.0 6:1.0 8675:1.0 8676:1.0 8677:1.0 8678:1.0 8679:1.0 8680:1.0 8681:1.0 8682:1.0 8683:1.0 
0.6335565515369341 6:1.0 155:1.0 156:1.0 8722:1.0 8723:1.0 8724:1.0 8725:1.0 8726:1.0 8727:1.0 8728:1.0 8729:1.0 8730:1.0 8731:1.0 8732:1.0 8733:1.0 8734:1.0 8735:1.0 8736:1.0 8737:1.0 
1.0 26:1.0 488:1.0 5835:1.0 8790:1.0 8791:1.0 8792:1.0 
1.0 6:1.0 8793:1.0 8794:1.0 8795:1.0 
1.0 26:1.0 1483:1.0 3913:1.0 8796:1.0 8797:1.0 8798:1.0 
1.0 6:1.0 8826:1.0 8827:1.0 
1.0 6:1.0 310:1.0 2104:1.0 4492:1.0 5169:1.0 5170:1.0 5171:1.0 8828:1.0 8829:1.0 8830:1.0 8831:1.0 8832:1.0 
1.0 6:1.0 310:1.0 942:1.0 2104:1.0 4492:1.0 5169:1.0 5170:1.0 5171:1.0 5179:1.0 8841:1.0 8842:1.0 8843:1.0 8844:1.0 8845:1.0 
1.0 6:1.0 5015:1.0 8846:1.0 8847:1.0 8848:1.0 8849:1.0 8850:1.0 
0.1741832673326621 6:1.0 4054:1.0 4055:1.0 5862:1.0 8877:1.0 8878:1.0 8879:1.0 8880:1.0 8881:1.0 8882:1.0 8883:1.0 8884:1.0 
1.0 6:1.0 2062:1.0 2412:1.0 2783:1.0 8475:1.0 8891:1.0 8892:1.0 8893:1.0 
1.0 6:1.0 648:1.0 649:1.0 650:1.0 3812:1.0 4447:1.0 7080:1.0 7081:1.0 7082:1.0 8898:1.0 8899:1.0 8900:1.0 
1.0 6:1.0 1956:1.0 1957:1.0 4528:1.0 5562:1.0 8929:1.0 8930:1.0 8931:1.0 8932:1.0 8933:1.0 8934:1.0 8935:1.0 8936:1.0 
1.0 6:1.0 4530:1.0 8941:1.0 8942:1.0 8943:1.0 8944:1.0 8945:1.0 
1.0 89:1.0 197:1.0 8220:1.0 8221:1.0 8222:1.0 8223:1.0 8946:1.0 8947:1.0 8948:1.0 8949:1.0 8950:1.0 8951:1.0 
1.0 6:1.0 1511:1.0 3464:1.0 4061:1.0 8952:1.0 8953:1.0 8954:1.0 8955:1.0 8956:1.0 
1.0 6:1.0 905:1.0 3811:1.0 8961:1.0 8962:1.0 8963:1.0 8964:1.0 8965:1.0 8966:1.0 
1.0 6:1.0 4206:1.0 8441:1.0 8442:1.0 8971:1.0 8972:1.0 8973:1.0 8974:1.0 8975:1.0 
1.0 6:1.0 8976:1.0 8977:1.0 8978:1.0 8979:1.0 8980:1.0 8981:1.0 
1.0 26:1.0 8991:1.0 
1.0 310:1.0 405:1.0 414:1.0 549:1.0 1380:1.0 1381:1.0 1382:1.0 2826:1.0 2827:1.0 4708:1.0 5549:1.0 7073:1.0 7074:1.0 7075:1.0 9024:1.0 9025:1.0 9026:1.0 9027:1.0 9028:1.0 9029:1.0 
1.0 26:1.0 9043:1.0 
1.0 26:1.0 3008:1.0 9054:1.0 9055:1.0 9056:1.0 9057:1.0 9058:1.0 9059:1.0 9060:1.0 
1.0 6:1.0 2524:1.0 2549:1.0 2550:1.0 7903:1.0 9070:1.0 9071:1.0 
1.0 6:1.0 1275:1.0 1464:1.0 2721:1.0 9072:1.0 9073:1.0 9074:1.0 9075:1.0 9076:1.0 9077:1.0 9078:1.0 9079:1.0 9080:1.0 
1.0 6:1.0 306:1.0 307:1.0 6735:1.0 9115:1.0 9116:1.0 9117:1.0 9118:1.0 9119:1.0 
1.0 26:1.0 9123:1.0 9124:1.0 9125:1.0 9126:1.0 
1.0 26:1.0 1455:1.0 2873:1.0 2874:1.0 7132:1.0 8931:1.0 9127:1.0 9128:1.0 9129:1.0 
1.0 26:1.0 1838:1.0 2370:1.0 9140:1.0 9141:1.0 9142:1.0 9143:1.0 9144:1.0 
1.0 26:1.0 9145:1.0 
1.0 6:1.0 648:1.0 649:1.0 650:1.0 679:1.0 1098:1.0 5343:1.0 8984:1.0 9147:1.0 9148:1.0 9149:1.0 
1.0 6:1.0 378:1.0 4455:1.0 8269:1.0 9168:1.0 9169:1.0 9170:1.0 9171:1.0 9172:1.0 9173:1.0 9174:1.0 9175:1.0 9176:1.0 9177:1.0 
1.0 6:1.0 28:1.0 500:1.0 1896:1.0 2366:1.0 2738:1.0 2739:1.0 3559:1.0 6171:1.0 9178:1.0 9179:1.0 9180:1.0 9181:1.0 
1.0 6:1.0 40:1.0 378:2.0 1953:1.0 1956:1.0 2075:1.0 2076:1.0 2077:1.0 2860:1.0 4812:1.0 6158:1.0 8104:1.0 9210:1.0 9211:1.0 9212:1.0 9213:1.0 
1.0 414:1.0 1954:1.0 4659:1.0 9248:1.0 9249:1.0 
1.0 6:1.0 9288:1.0 9289:1.0 9290:1.0 9291:1.0 
0.16546293087078734 6:1.0 301:1.0 526:1.0 1605:1.0 1633:1.0 1634:1.0 1635:1.0 1636:1.0 1637:1.0 1638:1.0 3370:1.0 9292:1.0 9293:1.0 9294:2.0 9295:2.0 9296:1.0 
1.0 6:1.0 64:1.0 127:1.0 5185:1.0 5186:1.0 5729:1.0 8972:1.0 9256:1.0 9310:1.0 9311:1.0 9312:1.0 9313:1.0 9314:1.0 9315:1.0 9316:1.0 9317:1.0 
1.0 4887:1.0 6012:1.0 8126:1.0 9323:1.0 9324:1.0 9325:1.0 9326:1.0 9327:1.0 9328:1.0 9329:1.0 9330:1.0 9331:1.0 9332:1.0 9333:1.0 9334:1.0 
1.0 6:1.0 40:1.0 3370:1.0 5076:1.0 5547:1.0 9356:1.0 9357:1.0 9358:1.0 9359:1.0 9360:1.0 9361:1.0 9362:1.0 
0.9806828052400195 6:1.0 27:1.0 28:1.0 29:1.0 30:1.0 31:1.0 32:1.0 33:1.0 797:1.0 2088:1.0 3032:1.0 3033:1.0 3904:1.0 8676:1.0 8677:1.0 8678:1.0 9386:1.0 9387:1.0 9388:1.0 9389:1.0 9390:1.0 9391:1.0 
1.0 6:1.0 27:1.0 28:1.0 29:1.0 30:1.0 31:1.0 32:1.0 33:1.0 1219:1.0 1220:1.0 8062:1.0 9396:1.0 
1.0 6:1.0 4220:1.0 9422:1.0 9423:1.0 9424:1.0 9425:1.0 9426:1.0 
